svm_type c_svc
kernel_type rbf
gamma 0.00833333
nr_class 15
total_sv 2088
rho 0.435821 0.606214 0.590854 0.0711617 2.22913 -0.0341605 -0.279114 0.444708 0.75578 0.640414 0.128118 0.507805 0.733915 7.05647 1.74942 -0.531895 -0.516628 -0.0662465 -0.437697 -3.58799 0.047313 0.467171 -0.294196 -0.226504 -0.0354749 1.16779 -2.48748 -0.166801 -0.654455 -0.223882 -0.602811 -0.371283 0.454771 0.198245 -0.921727 -0.406625 0.00526699 1.99067 -0.199294 -0.65223 -0.258861 -0.599052 4.11902 -0.189348 -0.0303834 1.50463 -0.399949 -0.129894 0.284997 -0.400575 1.6698 0.105657 0.457251 0.54367 0.788715 0.698047 0.347862 0.621219 0.78763 0.638934 -1.08968 -0.00532984 0.110511 0.514739 0.229859 -2.82816 -1.08882 0.494932 0.185378 0.387787 0.459242 0.75282 0.620443 5.81247 0.710442 0.736822 0.427407 0.0613655 0.553285 -0.160621 -0.159698 0.26638 1.19931 -2.52024 0.427193 -2.60684 -0.265949 0.671318 0.452945 0.169744 -0.36524 -0.627304 -0.405151 -0.366827 -1.01369 -0.379049 0.0681584 4.88916 0.00354627 1.94842 0.612408 0.316254 0.317439 -0.105318 0.193505
label 1 2 3 4 5 6 7 8 9 10 11 12 13 14 15
probA -5.83576 -5.62563 -5.58228 -2.36881 -3.89919 -5.51756 -2.86924 -5.40587 -6.06551 -5.83752 -4.11393 -5.32307 -6.01815 -2.85109 -2.91414 -2.33222 -5.92797 -6.13433 -6.36441 -2.08695 -5.27883 -2.90795 -3.12617 -5.84945 -3.93645 -3.15073 -2.2919 -4.18873 -5.79099 -5.87265 -6.12526 -4.23349 -2.61199 -4.72564 -2.14082 -5.33168 -4.96822 -1.92587 -4.77386 -5.84826 -6.0826 -6.24125 -2.26811 -5.19382 -4.08881 -2.66234 -5.97942 -5.28759 -2.83048 -3.00638 -2.7982 -5.50332 -5.958 -6.04364 -6.03103 -5.87966 -3.94378 -4.9625 -5.96306 -5.97712 -4.89573 -6.10799 -6.1871 -6.29141 -5.81149 -2.34083 -3.45767 -6.18901 -5.69203 -6.01305 -6.36862 -6.49267 -5.80761 -2.58944 -4.07206 -6.44765 -5.43525 -5.08258 -4.31742 -3.79693 -5.55353 -5.63564 -4.62368 -2.44935 -6.0695 -3.18051 -5.87186 -4.27008 -5.32553 -5.41085 -4.03365 -5.87155 -5.90479 -2.48729 -2.76447 -5.77555 -5.05412 -1.93629 -4.62272 -2.41543 -5.67328 -5.35787 -4.97544 -5.02486 -3.61638
probB -0.115668 -0.150343 -0.188888 -0.552126 -0.213749 -0.0165985 -0.333823 0.00104897 0.121292 0.0437801 -0.952148 -0.0772444 0.0188218 -0.618376 0.14933 0.237572 -0.29211 0.186451 0.363609 0.206062 -0.0710994 0.740191 0.173451 0.32678 0.0314959 0.251635 0.152033 -0.150215 -0.21046 0.145955 0.374262 -0.317733 0.200698 0.135198 0.0496841 0.234508 0.462771 -0.0102651 0.233724 -0.214298 0.208719 0.435981 -0.429215 0.480482 0.148319 0.0549424 0.695329 0.604087 0.0101801 -0.00769278 0.203307 0.285333 0.31737 0.407154 0.457577 0.366938 -0.94436 0.224703 0.378903 0.351121 -0.830637 -0.236408 -0.137636 0.049231 -0.000434269 0.238306 0.187556 -0.0737783 -0.194658 -0.571824 -0.335521 -0.200203 -0.0119157 -0.167021 0.689913 -0.241981 -0.658883 0.404072 0.923068 0.365773 0.335362 0.525942 0.014752 0.291548 0.0458205 0.756117 0.293126 0.663319 0.122217 -0.238676 -0.558879 0.169064 0.320743 0.170359 0.0148856 0.416204 0.293556 -0.538362 -0.155616 0.233206 -0.131888 -0.639967 -0.428128 -0.0145624 0.257296
nr_sv 168 165 164 158 97 91 71 177 98 154 194 116 118 168 149
SV
1.444813600198701 2.142376270021208 2.881753707165458 0.5339004253577324 1.368336442202368 0 388.0565247763957 1.126894866058492 2.326010927388169 1.622137171904703 0 0.7341583560989947 1.405870040304685 0 1:0.0059039 2:0.0076198 3:0.0083318 4:0.008938 5:0.23201 6:0.22843 7:0.15946 8:0.15946 9:0.11315 10:0.13128 11:0.12535 12:0.12415 13:0.072766 14:0.072345 15:0.049794 16:0.053216 17:9.6672 18:9.6672 19:9.6512 20:9.6269 21:2.1049 22:2.1692 23:2.1351 24:2.1351 25:1.9987 26:1.997 27:1.9968 28:1.9968 29:0.012324 30:0.0082983 31:0.023435 32:0.019357 33:0.22859 34:0.24887 35:0.23768 36:0.21217 37:0.079789 38:0.093834 39:0.090401 40:0.090401 41:0.1957 42:0.21885 43:0.2159 44:0.2159 45:2.1612 46:2.1553 47:2.1801 48:2.1295 49:2.1858 50:2.1858 51:2.3161 52:2.4072 53:0.22296 54:0.22413 55:0.25185 56:0.23958 57:0.046736 58:0.045291 59:0.045486 60:0.056495 61:9.5833 62:9.5833 63:9.6038 64:9.6038 65:0.097334 66:0.093616 67:0.39238 68:0.40095 69:0.29215 70:0.31104 71:0.20856 72:0.22514 73:0.096542 74:0.069856 75:0.09882 76:0.076074 77:9.7222 78:9.7396 79:9.5733 80:9.5733 81:10.012 82:9.9926 83:9.9367 84:9.9144 85:2.094 86:2.1141 87:2.098 88:2.1052 89:0.10104 90:0.10157 91:0.071562 92:0.084097 93:0.066962 94:0.052586 95:0.083877 96:0.084407 97:0.99753 98:1.1484 99:0.89227 100:0.93131 101:0.14282 102:0.18199 103:0.050816 104:0.072547 105:2.0603 106:2.0603 107:2.0976 108:2.1484 109:0.27934 110:0.27731 111:0.13689 112:0.13689 113:0.26013 114:0.25306 115:0.19977 116:0.20843 117:0.043817 118:0.055494 119:0.073314 120:0.049104 
0 0 0 0 0 0 1000 0 0 0 0 0 0 162.6989750335005 1:0.0093018 2:0.014552 3:0.015646 4:0.015077 5:0.24885 6:0.24977 7:0.20077 8:0.20077 9:0.13919 10:0.15088 11:0.15327 12:0.16195 13:0.10115 14:0.10349 15:0.069222 16:0.07313 17:9.7952 18:9.7952 19:9.7769 20:9.7627 21:1.3775 22:1.4393 23:1.4044 24:1.4044 25:1.2917 26:1.2869 27:1.2886 28:1.2857 29:0.016634 30:0.011301 31:0.016414 32:0.010792 33:0.26917 34:0.28242 35:0.27029 36:0.24814 37:0.091401 38:0.1038 39:0.10655 40:0.10655 41:0.236 42:0.26002 43:0.2585 44:0.2585 45:1.4425 46:1.4425 47:1.4602 48:1.435 49:1.5065 50:1.5065 51:1.6333 52:1.7339 53:0.22056 54:0.21782 55:0.27273 56:0.25348 57:0.063661 58:0.066493 59:0.05957 60:0.084707 61:9.699 62:9.699 63:9.7452 64:9.7452 65:0.12878 66:0.11918 67:0.45473 68:0.46192 69:0.31929 70:0.34232 71:0.2343 72:0.25595 73:0.12845 74:0.096424 75:0.13282 76:0.10574 77:9.8444 78:9.8663 79:9.7121 80:9.7121 81:10.184 82:10.121 83:10.073 84:10.058 85:1.4105 86:1.4343 87:1.4014 88:1.4221 89:0.11857 90:0.13556 91:0.09784 92:0.11896 93:0.10518 94:0.092467 95:0.12504 96:0.11349 97:1.0656 98:1.2318 99:0.95773 100:0.988 101:0.17928 102:0.22029 103:0.087263 104:0.11276 105:1.3227 106:1.3227 107:1.3958 108:1.3958 109:0.32048 110:0.30255 111:0.172 112:0.172 113:0.28806 114:0.27516 115:0.21897 116:0.22808 117:0.042047 118:0.053371 119:0.067078 120:0.049251 
0 0 0 0 0 0 0 0 0 0 1.73489332724845 0 0 0 1:0.012141 2:0.018052 3:0.019162 4:0.017777 5:0.25178 6:0.25534 7:0.21225 8:0.21225 9:0.14587 10:0.15365 11:0.16103 12:0.17718 13:0.11238 14:0.1169 15:0.074911 16:0.079104 17:9.5837 18:9.5837 19:9.5637 20:9.5527 21:1.236 22:1.2954 23:1.2614 24:1.2614 25:1.1591 26:1.1561 27:1.1555 28:1.1499 29:0.021708 30:0.019664 31:0.023399 32:0.017926 33:0.27816 34:0.29165 35:0.27868 36:0.25556 37:0.099818 38:0.11303 39:0.11799 40:0.11799 41:0.24445 42:0.27451 43:0.2751 44:0.2751 45:1.3065 46:1.3065 47:1.3174 48:1.2972 49:1.3809 50:1.3809 51:1.5012 52:1.5995 53:0.21838 54:0.21395 55:0.27397 56:0.25717 57:0.070886 58:0.076266 59:0.06538 60:0.094531 61:9.4775 62:9.4775 63:9.517 64:9.517 65:0.13726 66:0.13037 67:0.56591 68:0.56845 69:0.32625 70:0.35065 71:0.24065 72:0.26044 73:0.13577 74:0.10555 75:0.13912 76:0.11591 77:9.6222 78:9.6487 79:9.5 80:9.5 81:9.9732 82:9.9158 83:9.8677 84:9.8589 85:1.2778 86:1.3017 87:1.2678 88:1.2897 89:0.12799 90:0.1452 91:0.10567 92:0.13056 93:0.10951 94:0.10141 95:0.13447 96:0.11971 97:1.165 98:1.3362 99:1.0601 100:1.0878 101:0.19575 102:0.23132 103:0.096693 104:0.12441 105:1.1842 106:1.1842 107:1.2569 108:1.2569 109:0.34325 110:0.32345 111:0.17884 112:0.17884 113:0.29124 114:0.27628 115:0.2189 116:0.22658 117:0.056037 118:0.064923 119:0.081613 120:0.062755 
0 0 0 0 0 0 1000 0 0 0 0 0 0 0 1:0.0050983 2:0.0075162 3:0.0007749 4:0.016762 5:0.31314 6:0.31412 7:0.21638 8:0.21638 9:0.1586 10:0.1586 11:0.17006 12:0.18969 13:0.12798 14:0.12721 15:0.091847 16:0.096224 17:8.5889 18:8.5889 19:8.5637 20:8.5504 21:1.3307 22:1.4079 23:1.3421 24:1.3421 25:1.1923 26:1.2004 27:1.1914 28:1.1911 29:0.014657 30:0.01769 31:0.011134 32:0.019141 33:0.24575 34:0.25927 35:0.25527 36:0.22822 37:0.10315 38:0.13281 39:0.099089 40:0.099089 41:0.27073 42:0.28844 43:0.28244 44:0.28244 45:1.383 46:1.3824 47:1.4055 48:1.353 49:1.4441 50:1.4441 51:1.5843 52:1.6792 53:0.30367 54:0.29051 55:0.35835 56:0.33308 57:0.054398 58:0.053322 59:0.049432 60:0.06346 61:8.436 62:8.436 63:8.5005 64:8.5005 65:0.13526 66:0.13526 67:0.24233 68:0.22919 69:0.39883 70:0.43295 71:0.28439 72:0.29724 73:0.15567 74:0.11278 75:0.12767 76:0.10878 77:8.6419 78:8.6781 79:8.4813 80:8.4813 81:8.5996 82:8.5996 83:8.9416 84:8.9248 85:1.2849 86:1.2914 87:1.2928 88:1.2928 89:0.13725 90:0.14754 91:0.11489 92:0.10753 93:0.10257 94:0.089276 95:0.12967 96:0.13234 97:0.80683 98:0.90009 99:0.67215 100:0.708 101:0.18823 102:0.24962 103:0.090862 104:0.098504 105:1.2841 106:1.2841 107:1.3078 108:1.354 109:0.36909 110:0.36572 111:0.13021 112:0.13021 113:0.34048 114:0.3249 115:0.26298 116:0.26855 117:0.058969 118:0.039506 119:0.079735 120:0.035314 
0 0 0 0 0 0 0 0 0 0 0 0 0 1000 1:0.0080803 2:0 3:0.0038938 4:0.020329 5:0.23107 6:0.28817 7:0.23438 8:0.25198 9:0.19299 10:0.19299 11:0.206 12:0.22344 13:0.15457 14:0.16115 15:0.11807 16:0.12145 17:9.0859 18:9.0859 19:9.0571 20:9.0537 21:1.3067 22:1.3877 23:1.3089 24:1.3089 25:1.1603 26:1.1623 27:1.1574 28:1.1565 29:0.023392 30:0.012177 31:0.012726 32:0.013164 33:0.26992 34:0.27168 35:0.27481 36:0.2505 37:0.10954 38:0.1227 39:0.098654 40:0.098654 41:0.29553 42:0.30721 43:0.30114 44:0.30114 45:1.384 46:1.3861 47:1.4082 48:1.3521 49:1.4585 50:1.4585 51:1.6035 52:1.7078 53:0.308 54:0.29697 55:0.36072 56:0.35256 57:0.070594 58:0.066 59:0.051656 60:0.051656 61:8.9056 62:8.9056 63:8.9715 64:8.9715 65:0.11728 66:0.11728 67:0.12779 68:0.10601 69:0.43339 70:0.46399 71:0.31072 72:0.32108 73:0.17334 74:0.13436 75:0.15161 76:0.13039 77:9.1401 78:9.1834 79:8.9833 80:8.9833 81:8.9325 82:8.9325 83:9.4671 84:9.4488 85:1.2672 86:1.2712 87:1.2829 88:1.2747 89:0.14989 90:0.16829 91:0.12222 92:0.11453 93:0.14014 94:0.12381 95:0.17168 96:0.17407 97:0.62828 98:0.7201 99:0.50462 100:0.53306 101:0.20392 102:0.27796 103:0.10955 104:0.10509 105:1.2482 106:1.2482 107:1.3007 108:1.3489 109:0.28418 110:0.28418 111:0.1496 112:0.1496 113:0.37697 114:0.37686 115:0.31184 116:0.31477 117:0.042662 118:0.033643 119:0.037161 120:0.0389 
0 0 0 0 0 0 1000 0 0 0 0 0 0 0 1:0.0041657 2:0.0024049 3:0.0042127 4:0.017232 5:0.24994 6:0.31051 7:0.24469 8:0.25417 9:0.20983 10:0.20983 11:0.21923 12:0.23107 13:0.15347 14:0.15849 15:0.11877 16:0.12141 17:9.4792 18:9.4792 19:9.4519 20:9.4414 21:1.4672 22:1.5497 23:1.4744 24:1.4744 25:1.3029 26:1.3049 27:1.2926 28:1.2977 29:0.019289 30:0.0061656 31:0.0067101 32:0.0081346 33:0.25932 34:0.2602 35:0.26457 36:0.24201 37:0.11857 38:0.13916 39:0.10431 40:0.10431 41:0.28394 42:0.28853 43:0.28284 44:0.28284 45:1.5423 46:1.5422 47:1.5669 48:1.5078 49:1.6092 50:1.6092 51:1.764 52:1.8691 53:0.30968 54:0.30478 55:0.3613 56:0.3555 57:0.076641 58:0.064997 59:0.054045 60:0.054045 61:9.3062 62:9.3062 63:9.3746 64:9.3746 65:0.13862 66:0.13862 67:0.14232 68:0.12412 69:0.43694 70:0.46545 71:0.31647 72:0.32491 73:0.17174 74:0.13349 75:0.1559 76:0.1321 77:9.5306 78:9.5721 79:9.3678 80:9.3678 81:9.3032 82:9.3032 83:9.8492 84:9.8335 85:1.4004 86:1.4014 87:1.4277 88:1.4277 89:0.14888 90:0.17723 91:0.11513 92:0.10707 93:0.1397 94:0.11901 95:0.17115 96:0.17439 97:0.61837 98:0.67872 99:0.48977 100:0.52153 101:0.20341 102:0.27819 103:0.10895 104:0.095611 105:1.4003 106:1.3983 107:1.456 108:1.4998 109:0.29628 110:0.29628 111:0.14571 112:0.14571 113:0.37842 114:0.37842 115:0.32382 116:0.32917 117:0.070269 118:0.050053 119:0.050969 120:0.049433 
0 0 0 0 0 0 0 0 0 0 0 0 0 1000 1:0.0020044 2:0.010701 3:0.0045706 4:0.0074567 5:0.18889 6:0.24625 7:0.17774 8:0.17628 9:0.22783 10:0.22783 11:0.23795 12:0.25298 13:0.17335 14:0.16667 15:0.13923 16:0.14302 17:8.851 18:8.851 19:8.8265 20:8.801 21:1.1373 22:1.2265 23:1.1518 24:1.1518 25:0.94215 26:0.93457 27:0.92044 28:0.92832 29:0.0092654 30:0.0092654 31:0.014262 32:0.014262 33:0.26087 34:0.26838 35:0.27126 36:0.24808 37:0.10131 38:0.10131 39:0.12076 40:0.12076 41:0.30463 42:0.30463 43:0.29761 44:0.29761 45:1.1804 46:1.1776 47:1.2071 48:1.1461 49:1.2293 50:1.2293 51:1.4005 52:1.5022 53:0.38977 54:0.37994 55:0.43806 56:0.42022 57:0.078399 58:0.084601 59:0.078807 60:0.082571 61:8.6928 62:8.6928 63:8.732 64:8.7305 65:0.10628 66:0.11394 67:0.10725 68:0.10038 69:0.48841 70:0.52101 71:0.36323 72:0.3729 73:0.20691 74:0.15722 75:0.16084 76:0.15123 77:8.9118 78:8.9474 79:8.7216 80:8.7216 81:8.5613 82:8.5613 83:9.2155 84:9.1894 85:0.99722 86:0.99988 87:1.0389 88:0.99257 89:0.1638 90:0.14859 91:0.12706 92:0.12274 93:0.14832 94:0.12232 95:0.17259 96:0.17826 97:0.61604 98:0.65181 99:0.48075 100:0.52484 101:0.22968 102:0.30979 103:0.13271 104:0.11246 105:1.0586 106:1.0481 107:1.0926 108:1.1343 109:0.25601 110:0.25601 111:0.14652 112:0.14652 113:0.42993 114:0.41288 115:0.34318 116:0.35496 117:0.015998 118:0.0014345 119:0.0028597 120:0.0067474 
0 0 0 0 0 0 0 0 0 0 0 0 0 791.5482705173207 1:0.0061789 2:0.0099326 3:0.0063084 4:0.014087 5:0.20717 6:0.26993 7:0.18853 8:0.17935 9:0.2591 10:0.2591 11:0.2688 12:0.28167 13:0.1944 14:0.18725 15:0.15759 16:0.1607 17:9.1965 18:9.1965 19:9.1715 20:9.1444 21:1.1704 22:1.2617 23:1.1853 24:1.1853 25:0.95125 26:0.94726 27:0.92523 28:0.93098 29:0.011891 30:0.011891 31:0.016161 32:0.016161 33:0.27077 34:0.27376 35:0.2799 36:0.25861 37:0.10889 38:0.11228 39:0.12368 40:0.12368 41:0.30362 42:0.30362 43:0.30325 44:0.30325 45:1.2198 46:1.2164 47:1.2471 48:1.1831 49:1.2702 50:1.2702 51:1.4491 52:1.5539 53:0.39874 54:0.39729 55:0.45071 56:0.44027 57:0.086823 58:0.097698 59:0.087914 60:0.091174 61:9.0322 62:9.0322 63:9.0726 64:9.0718 65:0.10196 66:0.11384 67:0.11364 68:0.10609 69:0.51413 70:0.54474 71:0.38722 72:0.39499 73:0.22288 74:0.17425 75:0.18441 76:0.17009 77:9.2533 78:9.291 79:9.0614 80:9.0614 81:8.8571 82:8.8571 83:9.5641 84:9.5388 85:1.0151 86:1.0126 87:1.0662 88:1.0123 89:0.17936 90:0.15542 91:0.13604 92:0.13162 93:0.16887 94:0.13977 95:0.1955 96:0.20066 97:0.58171 98:0.59722 99:0.44896 100:0.49284 101:0.24735 102:0.33112 103:0.13106 104:0.12054 105:1.0916 106:1.0783 107:1.1274 108:1.1727 109:0.26638 110:0.26638 111:0.14932 112:0.14932 113:0.45155 114:0.4482 115:0.37522 116:0.38786 117:0.011368 118:0.0027405 119:0.0015438 120:0.013215 
0 0 0 0 0 0 1000 0 0 0 0 0 0 1000 1:0.012511 2:0.006215 3:0.010378 4:0.0065426 5:0.21598 6:0.28545 7:0.19181 8:0.17994 9:0.275 10:0.275 11:0.28322 12:0.29222 13:0.20127 14:0.19787 15:0.16522 16:0.16728 17:9.5533 18:9.5533 19:9.5264 20:9.5028 21:1.53 22:1.6218 23:1.541 24:1.541 25:1.3007 26:1.2942 27:1.2715 28:1.2764 29:0.012596 30:0.013172 31:0.015257 32:0.017443 33:0.27101 34:0.2683 35:0.27986 36:0.25867 37:0.098735 38:0.11575 39:0.11094 40:0.11094 41:0.28516 42:0.28516 43:0.29455 44:0.29455 45:1.5848 46:1.5823 47:1.6121 48:1.5477 49:1.6449 50:1.6449 51:1.8234 52:1.9285 53:0.38185 54:0.39048 55:0.43608 56:0.43603 57:0.083159 58:0.089518 59:0.085346 60:0.085346 61:9.3747 62:9.3747 63:9.4316 64:9.4301 65:0.086692 66:0.091296 67:0.098183 68:0.096474 69:0.5166 70:0.54347 71:0.38793 72:0.39149 73:0.21996 74:0.17719 75:0.19068 76:0.17428 77:9.6041 78:9.6465 79:9.4171 80:9.4171 81:9.1763 82:9.1763 83:9.9313 84:9.91 85:1.3734 86:1.3632 87:1.4265 88:1.3699 89:0.17635 90:0.14918 91:0.12804 92:0.12804 93:0.17565 94:0.14671 95:0.2076 96:0.21372 97:0.52914 98:0.53067 99:0.39951 100:0.44032 101:0.24679 102:0.33178 103:0.11149 104:0.11205 105:1.45 106:1.4356 107:1.4902 108:1.5368 109:0.27058 110:0.27058 111:0.13638 112:0.13638 113:0.44892 114:0.44892 115:0.39462 116:0.39564 117:0.011519 118:0.005298 119:0.0023983 120:0.017455 
0 0 0 0.4100974735622978 1.438026365224705 2.939808249799954 87.59641554605119 0 0 0 0.9184250894124233 0.6025516124262636 0.2566267443806046 1000 1:0.01484 2:0.015029 3:0.017928 4:0.013542 5:0.25564 6:0.32889 7:0.23057 8:0.21625 9:0.30147 10:0.30147 11:0.31318 12:0.32475 13:0.22019 14:0.21952 15:0.18394 16:0.18567 17:9.916 18:9.916 19:9.8872 20:9.8699 21:1.235 22:1.3265 23:1.2431 24:1.2431 25:0.99827 26:0.99144 27:0.97308 28:0.97699 29:0.010073 30:0.016098 31:0.011491 32:0.02389 33:0.29724 34:0.28775 35:0.30067 36:0.28246 37:0.1113 38:0.1343 39:0.11768 40:0.11768 41:0.30852 42:0.30852 43:0.32096 44:0.32096 45:1.316 46:1.3142 47:1.3433 48:1.2758 49:1.3847 50:1.3847 51:1.5647 52:1.6774 53:0.37544 54:0.38961 55:0.43393 56:0.43835 57:0.090639 58:0.092436 59:0.090353 60:0.090353 61:9.725 62:9.725 63:9.8021 64:9.7997 65:0.10004 66:0.098732 67:0.1083 68:0.10947 69:0.54038 70:0.56649 71:0.40984 72:0.41459 73:0.23513 74:0.19764 75:0.21878 76:0.19749 77:9.9622 78:10.009 79:9.7846 80:9.7846 81:9.5387 82:9.5387 83:10.303 84:10.286 85:1.1043 86:1.0922 87:1.1597 88:1.0998 89:0.19709 90:0.16992 91:0.15443 92:0.14629 93:0.20703 94:0.1772 95:0.2423 96:0.24859 97:0.52028 98:0.51969 99:0.39065 100:0.42535 101:0.27087 102:0.3598 103:0.12387 104:0.13454 105:1.137 106:1.137 107:1.2164 108:1.2451 109:0.29301 110:0.29301 111:0.1521 112:0.1521 113:0.47048 114:0.47048 115:0.42288 116:0.41792 117:0.016471 118:0.0086954 119:0.0036394 120:0.019953 
0 0 0 0 0 0 0 0 0 0 0 0 0 74.17123040872424 1:0.0038928 2:0.0099863 3:0.002983 4:0.0060893 5:0.18054 6:0.23551 7:0.16789 8:0.16372 9:0.23137 10:0.23137 11:0.24014 12:0.25444 13:0.17207 14:0.16339 15:0.14206 16:0.14618 17:8.7156 18:8.7156 19:8.693 20:8.6607 21:1.0858 22:1.1763 23:1.1049 24:1.1049 25:0.87896 26:0.86936 27:0.85846 28:0.86577 29:0.0092164 30:0.0092164 31:0.012879 32:0.012879 33:0.2586 34:0.27002 35:0.27093 36:0.24766 37:0.10091 38:0.10091 39:0.13175 40:0.13175 41:0.30781 42:0.30781 43:0.29749 44:0.29749 45:1.1171 46:1.1127 47:1.1442 48:1.0827 49:1.1557 50:1.1557 51:1.3323 52:1.4324 53:0.41341 54:0.4013 55:0.4593 56:0.43509 57:0.087143 58:0.08881 59:0.080474 60:0.094172 61:8.5693 62:8.5691 63:8.5869 64:8.5869 65:0.11058 66:0.11897 67:0.11032 68:0.10784 69:0.49706 70:0.52849 71:0.37299 72:0.38345 73:0.21218 74:0.16121 75:0.15479 76:0.1545 77:8.7798 78:8.8115 79:8.5803 80:8.5803 81:8.4148 82:8.4148 83:9.0701 84:9.0396 85:0.92226 86:0.92742 87:0.96876 88:0.92001 89:0.16662 90:0.15103 91:0.129 92:0.12592 93:0.14716 94:0.11903 95:0.16784 96:0.17165 97:0.6331 98:0.6644 99:0.49807 100:0.54718 101:0.23452 102:0.3145 103:0.13908 104:0.11612 105:0.99431 106:0.98558 107:1.0298 108:1.0694 109:0.25297 110:0.25297 111:0.1463 112:0.1463 113:0.43212 114:0.41354 115:0.34375 116:0.35828 117:0.013824 118:0.0032183 119:0.0048512 120:0.005777 
0 0 0 0 0 5.242215899449604 0 0 0 0 0 0 0 0 1:0.0085467 2:0.010924 3:0.0029637 4:0.0053825 5:0.16356 6:0.21359 7:0.15261 8:0.14795 9:0.22375 10:0.22375 11:0.23364 12:0.25213 13:0.17046 14:0.15964 15:0.1458 16:0.15102 17:8.0703 18:8.0703 19:8.0493 20:8.0101 21:0.95054 22:1.0427 23:0.97283 24:0.97283 25:0.74141 26:0.72842 27:0.72137 28:0.72587 29:0.0093719 30:0.0093719 31:0.01137 32:0.01137 33:0.25661 34:0.27492 35:0.27336 36:0.24771 37:0.10425 38:0.10425 39:0.1523 40:0.1523 41:0.31841 42:0.32053 43:0.30613 44:0.30613 45:0.95712 46:0.95188 47:0.98465 48:0.92502 49:0.98772 50:0.98772 51:1.1659 52:1.2602 53:0.44176 54:0.43456 55:0.48146 56:0.46081 57:0.096944 58:0.092136 59:0.084062 60:0.10523 61:7.9341 62:7.9152 63:7.931 64:7.931 65:0.11829 66:0.1249 67:0.11571 68:0.11123 69:0.51127 70:0.53532 71:0.38581 72:0.38923 73:0.21399 74:0.16763 75:0.13898 76:0.1571 77:8.1398 78:8.168 79:7.9281 80:7.9281 81:7.7626 82:7.7626 83:8.4211 84:8.3856 85:0.75824 86:0.76513 87:0.8039 88:0.75714 89:0.1703 90:0.15802 91:0.13189 92:0.13189 93:0.14035 94:0.11282 95:0.15685 96:0.1629 97:0.68362 98:0.71372 99:0.54246 100:0.5984 101:0.24263 102:0.32107 103:0.13814 104:0.12515 105:0.83569 106:0.8277 107:0.87317 108:0.90581 109:0.25581 110:0.25581 111:0.14224 112:0.14224 113:0.42333 114:0.40436 115:0.33576 116:0.35246 117:0.019663 118:0.0077359 119:0.011707 120:0.0064962 
0 0 0 0 0 0 190.0382595571381 0 0 0 0 0 0 0 1:0.011913 2:0.0033159 3:0.0069842 4:0.0063128 5:0.2402 6:0.3066 7:0.21603 8:0.20264 9:0.26952 10:0.26952 11:0.27792 12:0.28887 13:0.1995 14:0.19229 15:0.16179 16:0.16441 17:9.2915 18:9.2915 19:9.2663 20:9.2366 21:1.4174 22:1.5093 23:1.433 24:1.433 25:1.1862 26:1.1788 27:1.1563 28:1.1601 29:0.036547 30:0.021922 31:0.020957 32:0.025065 33:0.26507 34:0.26696 35:0.2759 36:0.25406 37:0.13716 38:0.14907 39:0.15581 40:0.15581 41:0.28835 42:0.28835 43:0.29357 44:0.29357 45:1.4602 46:1.4562 47:1.4873 48:1.4233 49:1.513 50:1.513 51:1.6937 52:1.7958 53:0.39995 54:0.40331 55:0.45118 56:0.44392 57:0.1034 58:0.09742 59:0.085452 60:0.095932 61:9.1241 62:9.1241 63:9.1647 64:9.1647 65:0.12553 66:0.13182 67:0.13891 68:0.13774 69:0.51803 70:0.54695 71:0.39097 72:0.39584 73:0.22374 74:0.17646 75:0.18864 76:0.17299 77:9.3431 78:9.3823 79:9.1501 80:9.1501 81:8.9489 82:8.9489 83:9.6595 84:9.6355 85:1.246 86:1.2366 87:1.3 88:1.2794 89:0.1812 90:0.18587 91:0.126 92:0.126 93:0.16742 94:0.13824 95:0.19678 96:0.20385 97:0.58686 98:0.58667 99:0.45585 100:0.50115 101:0.24943 102:0.33163 103:0.1519 104:0.11548 105:1.3319 106:1.339 107:1.3674 108:1.4175 109:0.30211 110:0.30211 111:0.15571 112:0.15571 113:0.4524 114:0.4524 115:0.38444 116:0.39651 117:0.044264 118:0.039783 119:0.037613 120:0.047912 
0 0 0 0 0 0 1000 0 0 0 0 0 0 0 1:0.0084985 2:0.0061461 3:0.003321 4:0.0076326 5:0.213 6:0.27238 7:0.19906 8:0.19808 9:0.20819 10:0.20819 11:0.21719 12:0.23255 13:0.16053 14:0.15436 15:0.1275 16:0.1312 17:8.4021 18:8.4021 19:8.3767 20:8.3488 21:1.6756 22:1.7646 23:1.6884 24:1.6884 25:1.4751 26:1.4766 27:1.4574 28:1.4648 29:0.029245 30:0.022626 31:0.015926 32:0.024696 33:0.23431 34:0.24465 35:0.25149 36:0.22342 37:0.14901 38:0.14901 39:0.12346 40:0.12346 41:0.27031 42:0.27031 43:0.27063 44:0.27063 45:1.6898 46:1.6875 47:1.7156 48:1.6597 49:1.7464 50:1.7464 51:1.9106 52:2.0007 53:0.38684 54:0.37759 55:0.42929 56:0.40976 57:0.080336 58:0.072956 59:0.059786 60:0.079942 61:8.2371 62:8.2371 63:8.2812 64:8.2812 65:0.1376 66:0.15323 67:0.13901 68:0.13926 69:0.4704 70:0.50206 71:0.34379 72:0.34841 73:0.18903 74:0.14191 75:0.13872 76:0.13308 77:8.4569 78:8.4952 79:8.2644 80:8.2644 81:8.1327 82:8.1327 83:8.7735 84:8.7493 85:1.5119 86:1.5034 87:1.5463 88:1.5463 89:0.14608 90:0.17336 91:0.10649 92:0.10649 93:0.11725 94:0.096242 95:0.1456 96:0.15066 97:0.65149 98:0.67451 99:0.51319 100:0.56088 101:0.21188 102:0.28511 103:0.11257 104:0.08893 105:1.5743 106:1.6172 107:1.6074 108:1.6453 109:0.30406 110:0.30406 111:0.12 112:0.12 113:0.40877 114:0.39232 115:0.32454 116:0.33274 117:0.074893 118:0.059291 119:0.062622 120:0.060986 
0 0 0 0 0 0 1000 0 0 0 0 0 0 0 1:0 2:0.012892 3:0.019632 4:0.030922 5:0.16878 6:0.22346 7:0.13973 8:0.11783 9:0.28873 10:0.29013 11:0.29101 12:0.2973 13:0.20424 14:0.18797 15:0.18531 16:0.1877 17:8.4815 18:8.4815 19:8.4442 20:8.4051 21:1.4496 22:1.5478 23:1.4832 24:1.4832 25:1.1744 26:1.162 27:1.1485 28:1.152 29:0.02793 30:0.02793 31:0.023734 32:0.023734 33:0.26467 34:0.28584 35:0.28701 36:0.26255 37:0.12378 38:0.12378 39:0.18294 40:0.18294 41:0.31052 42:0.31052 43:0.30208 44:0.30208 45:1.4271 46:1.4171 47:1.4564 48:1.3924 49:1.4351 50:1.4351 51:1.636 52:1.7268 53:0.51796 54:0.51643 55:0.5389 56:0.52318 57:0.11945 58:0.11173 59:0.10294 60:0.11506 61:8.3456 62:8.3 63:8.309 64:8.309 65:0.12128 66:0.12937 67:0.12853 68:0.11722 69:0.56494 70:0.58301 71:0.44106 72:0.43204 73:0.24904 74:0.20453 75:0.17459 76:0.19508 77:8.5466 78:8.5741 79:8.3148 80:8.3148 81:8.0561 82:8.0561 83:8.8103 84:8.7653 85:1.1652 86:1.1676 87:1.2234 88:1.173 89:0.19925 90:0.17022 91:0.11907 92:0.11907 93:0.16844 94:0.13137 95:0.18123 96:0.18499 97:0.65065 98:0.6344 99:0.51929 100:0.58816 101:0.27626 102:0.35753 103:0.16174 104:0.13785 105:1.2946 106:1.2853 107:1.3392 108:1.3689 109:0.26542 110:0.26542 111:0.16274 112:0.16274 113:0.48814 114:0.46803 115:0.3959 116:0.41827 117:0.022338 118:0.026067 119:0.015295 120:0.015295 
0 0 0 0 0 0 1000 0 0 0 0 0 0 1000 1:0.0092009 2:0.0069788 3:0.019289 4:0.01324 5:0.21438 6:0.28293 7:0.18161 8:0.16071 9:0.30439 10:0.30894 11:0.31085 12:0.31216 13:0.21842 14:0.20831 15:0.18547 16:0.18728 17:9.7514 18:9.7514 19:9.7287 20:9.6897 21:1.7104 22:1.8053 23:1.7316 24:1.7316 25:1.4445 26:1.4366 27:1.4143 28:1.4165 29:0.015362 30:0.026195 31:0.026244 32:0.017033 33:0.27481 34:0.27724 35:0.28705 36:0.26698 37:0.10393 38:0.12406 39:0.1355 40:0.1355 41:0.2859 42:0.2859 43:0.29257 44:0.29257 45:1.7456 46:1.7392 47:1.7739 48:1.7066 49:1.7837 50:1.7837 51:1.9773 52:2.0805 53:0.43273 54:0.44195 55:0.47888 56:0.47232 57:0.10938 58:0.10588 59:0.094679 60:0.094679 61:9.5971 62:9.5913 63:9.6076 64:9.6076 65:0.096762 66:0.09305 67:0.10189 68:0.1149 69:0.54379 70:0.57024 71:0.41899 72:0.42168 73:0.22361 74:0.19645 75:0.21285 76:0.19432 77:9.8069 78:9.8415 79:9.6011 80:9.6011 81:9.3263 82:9.3263 83:10.105 84:10.075 85:1.4977 86:1.4903 87:1.5669 88:1.5006 89:0.18422 90:0.15844 91:0.12292 92:0.12292 93:0.189 94:0.15323 95:0.21512 96:0.21901 97:0.5324 98:0.51411 99:0.40969 100:0.46036 101:0.2651 102:0.35086 103:0.10601 104:0.12215 105:1.6093 106:1.5942 107:1.6497 108:1.6944 109:0.27098 110:0.27098 111:0.14391 112:0.14391 113:0.47703 114:0.47703 115:0.42114 116:0.42148 117:0.0084605 118:0.0084605 119:0.012023 120:0.012023 
0 0 0 0 0 0 1000 0 0 0 0 0 0 50.8088069398026 1:0.011772 2:0.0040115 3:0.0060199 4:0.013117 5:0.16898 6:0.22798 7:0.14802 8:0.14099 9:0.23626 10:0.24422 11:0.24251 12:0.24102 13:0.1605 14:0.15088 15:0.13404 16:0.13642 17:9.5805 18:9.5805 19:9.5602 20:9.522 21:1.8158 22:1.906 23:1.8394 24:1.8394 25:1.5865 26:1.5794 27:1.5682 28:1.5732 29:0.011611 30:0.011611 31:0.012853 32:0.012853 33:0.23977 34:0.25029 35:0.25307 36:0.23128 37:0.084036 38:0.084036 39:0.11004 40:0.11004 41:0.26342 42:0.26342 43:0.25544 44:0.25544 45:1.8462 46:1.8399 47:1.8734 48:1.81 49:1.8742 50:1.8742 51:2.0568 52:2.1568 53:0.3894 54:0.38571 55:0.42759 56:0.40729 57:0.076029 58:0.073119 59:0.064801 60:0.073717 61:9.447 62:9.4301 63:9.445 64:9.445 65:0.090842 66:0.10055 67:0.089311 68:0.085192 69:0.46969 70:0.49777 71:0.35274 72:0.35864 73:0.18972 74:0.14557 75:0.16491 76:0.1429 77:9.6439 78:9.672 79:9.4418 80:9.4418 81:9.2557 82:9.2557 83:9.9157 84:9.8826 85:1.6327 86:1.6385 87:1.6893 88:1.6341 89:0.1495 90:0.12637 91:0.10109 92:0.10109 93:0.13789 94:0.10498 95:0.15829 96:0.15806 97:0.55983 98:0.58071 99:0.44044 100:0.49145 101:0.21087 102:0.2896 103:0.10349 104:0.085912 105:1.7214 106:1.7141 107:1.7577 108:1.799 109:0.22811 110:0.22811 111:0.13166 112:0.13166 113:0.41168 114:0.41168 115:0.35028 116:0.35733 117:0.0042895 118:0.0082105 119:0.0070235 120:0.010001 
0 0 0 0 0 0 1000 0 0 0 0 0 0 0 1:0.0041573 2:0.007857 3:0.0036232 4:0.010899 5:0.25799 6:0.31784 7:0.24217 8:0.23716 9:0.23251 10:0.23251 11:0.24101 12:0.25393 13:0.1699 14:0.16346 15:0.13476 16:0.13805 17:9.0578 18:9.0578 19:9.0339 20:9.005 21:1.3246 22:1.4127 23:1.3421 24:1.3421 25:1.1188 26:1.1121 27:1.0978 28:1.1025 29:0.021399 30:0.014098 31:0.013503 32:0.01645 33:0.25087 34:0.25822 35:0.26189 36:0.2389 37:0.15871 38:0.17006 39:0.13869 40:0.13869 41:0.28752 42:0.28752 43:0.28258 44:0.28258 45:1.3658 46:1.3617 47:1.3917 48:1.3303 49:1.4145 50:1.4145 51:1.587 52:1.6867 53:0.37985 54:0.37308 55:0.42697 56:0.41103 57:0.093198 58:0.085527 59:0.073407 60:0.085342 61:8.9026 62:8.9026 63:8.9398 64:8.9398 65:0.16126 66:0.16126 67:0.17247 68:0.16748 69:0.47982 70:0.51096 71:0.35767 72:0.36563 73:0.2009 74:0.15231 75:0.16298 76:0.14884 77:9.1114 78:9.1473 79:8.9232 80:8.9232 81:8.8201 82:8.8201 83:9.4139 84:9.3895 85:1.1786 86:1.1756 87:1.2224 88:1.2224 89:0.16308 90:0.19051 91:0.12414 92:0.11837 93:0.14096 94:0.11487 95:0.16753 96:0.1741 97:0.65735 98:0.68217 99:0.5261 100:0.57129 101:0.22714 102:0.3031 103:0.1332 104:0.10569 105:1.2475 106:1.2558 107:1.278 108:1.3282 109:0.32236 110:0.32236 111:0.14144 112:0.14144 113:0.42 114:0.41251 115:0.34165 116:0.35374 117:0.081746 118:0.064561 119:0.072664 120:0.057737 
0 0 0 0 0 0 1000 0 0 0 0 0 0 0 1:0.0052412 2:0.0020656 3:0.0075338 4:0.0057353 5:0.21332 6:0.26111 7:0.19728 8:0.19728 9:0.18479 10:0.19131 11:0.1913 12:0.19529 13:0.1221 14:0.11381 15:0.099167 16:0.10288 17:9.1169 18:9.1169 19:9.0985 20:9.062 21:1.5407 22:1.6247 23:1.5673 24:1.5673 25:1.3542 26:1.341 27:1.34 28:1.34 29:0.0078806 30:0.01145 31:0.0050113 32:0.011225 33:0.22765 34:0.2471 35:0.2408 36:0.21725 37:0.13121 38:0.13312 39:0.11662 40:0.11662 41:0.25683 42:0.27632 43:0.2518 44:0.2518 45:1.5697 46:1.5634 47:1.5951 48:1.5358 49:1.5921 50:1.5921 51:1.7612 52:1.8578 53:0.35169 54:0.34649 55:0.3841 56:0.36579 57:0.068315 58:0.061181 59:0.055839 60:0.07572 61:9.0024 62:9.0024 63:8.9967 64:8.9967 65:0.13515 66:0.13515 67:0.15398 68:0.14753 69:0.41985 70:0.44396 71:0.3102 72:0.32201 73:0.15926 74:0.11681 75:0.1244 76:0.11393 77:9.1834 78:9.2063 79:8.9896 80:8.9896 81:8.9707 82:8.9707 83:9.4341 84:9.4009 85:1.4021 86:1.4184 87:1.4416 88:1.4416 89:0.13137 90:0.14939 91:0.097263 92:0.094393 93:0.10494 94:0.077432 95:0.12074 96:0.1272 97:0.6966 98:0.75924 99:0.57495 100:0.62553 101:0.18688 102:0.25563 103:0.094153 104:0.083132 105:1.4617 106:1.4772 107:1.4894 108:1.5422 109:0.27692 110:0.27692 111:0.12582 112:0.12582 113:0.36864 114:0.35258 115:0.28815 116:0.30302 117:0.054014 118:0.040772 119:0.073944 120:0.033822 
0 0 0 0 0 0 1000 0 0 0 0 0 0 0 1:0.0073401 2:0.0017013 3:0.0097518 4:0.0084893 5:0.17025 6:0.21545 7:0.16916 8:0.18326 9:0.16453 10:0.17271 11:0.17067 12:0.17205 13:0.10869 14:0.10119 15:0.087684 16:0.091361 17:9.117 18:9.117 19:9.0986 20:9.0657 21:1.7261 22:1.8085 23:1.7505 24:1.7505 25:1.5567 26:1.5452 27:1.545 28:1.545 29:0.0083532 30:0.006957 31:0.0057751 32:0.010143 33:0.22295 34:0.24379 35:0.23643 36:0.2118 37:0.090935 38:0.090935 39:0.09871 40:0.09871 41:0.24266 42:0.2579 43:0.24355 44:0.24355 45:1.7555 46:1.7504 47:1.7806 48:1.7235 49:1.778 50:1.778 51:1.9403 52:2.036 53:0.33113 54:0.32638 55:0.35988 56:0.34321 57:0.056548 58:0.049404 59:0.049055 60:0.064806 61:9.0042 62:9.0042 63:9.0017 64:9.0017 65:0.10777 66:0.10777 67:0.1133 68:0.10868 69:0.3955 70:0.4201 71:0.28755 72:0.29945 73:0.14461 74:0.10318 75:0.11608 76:0.099382 77:9.1877 78:9.2097 79:8.9973 80:8.9973 81:8.9778 82:8.9778 83:9.4341 84:9.4004 85:1.6042 86:1.6257 87:1.637 88:1.6316 89:0.11664 90:0.13453 91:0.086197 92:0.084625 93:0.093951 94:0.068173 95:0.10855 96:0.11377 97:0.67274 98:0.75331 99:0.55253 100:0.60128 101:0.16832 102:0.23588 103:0.079079 104:0.071616 105:1.6503 106:1.6684 107:1.6781 108:1.729 109:0.23474 110:0.23474 111:0.12027 112:0.12027 113:0.34663 114:0.33244 115:0.27121 116:0.28395 117:0.044435 118:0.034237 119:0.03873 120:0.027186 
0 0 0 0 0 0 1000 0 0 0 0 0 0 0 1:0.0021638 2:0.0044914 3:0.005941 4:0.0074301 5:0.21675 6:0.27008 7:0.21009 8:0.21147 9:0.19099 10:0.19197 11:0.19723 12:0.20717 13:0.13647 14:0.13073 15:0.10616 16:0.10974 17:8.928 18:8.928 19:8.9054 20:8.8785 21:1.538 22:1.6227 23:1.5555 24:1.5555 25:1.3592 26:1.3527 27:1.3499 28:1.3541 29:0.012841 30:0.010566 31:0.0075563 32:0.010664 33:0.23354 34:0.24639 35:0.24596 36:0.221 37:0.12666 38:0.13453 39:0.10966 40:0.10966 41:0.26546 42:0.27632 43:0.26214 44:0.26214 45:1.5739 46:1.5705 47:1.599 48:1.5414 49:1.6175 50:1.6175 51:1.7799 52:1.8764 53:0.35029 54:0.33837 55:0.39364 56:0.36929 57:0.067664 58:0.060744 59:0.05657 60:0.068818 61:8.7848 62:8.7848 63:8.8168 64:8.8168 65:0.13667 66:0.13667 67:0.14297 68:0.13907 69:0.43134 70:0.46306 71:0.31427 72:0.3236 73:0.16831 74:0.1225 75:0.13533 76:0.11792 77:8.988 78:9.0198 79:8.8031 80:8.8031 81:8.7491 82:8.7491 83:9.2742 84:9.248 85:1.4146 86:1.4208 87:1.4474 88:1.4474 89:0.13466 90:0.15704 91:0.10219 92:0.098227 93:0.11103 94:0.087826 95:0.13405 96:0.13916 97:0.66819 98:0.72315 99:0.53928 100:0.58408 101:0.1925 102:0.26343 103:0.099854 104:0.084233 105:1.4639 106:1.4812 107:1.4923 108:1.54 109:0.28526 110:0.28526 111:0.12443 112:0.12443 113:0.3774 114:0.36435 115:0.29879 116:0.3091 117:0.066503 118:0.045986 119:0.062691 120:0.039408 
0 0 0 0 0 0 0 0 0 0 0 0 0 783.5341399523503 1:0.0048849 2:0.0016881 3:0.0060024 4:0.0049674 5:0.1444 6:0.18946 7:0.14479 8:0.15815 9:0.17175 10:0.17435 11:0.1766 12:0.18409 13:0.12042 14:0.11281 15:0.098047 16:0.10236 17:8.7205 18:8.7205 19:8.7007 20:8.6701 21:1.4723 22:1.5566 23:1.4934 24:1.4934 25:1.3027 26:1.2942 27:1.2943 28:1.2943 29:0.013648 30:0.0090627 31:0.0064436 32:0.00841 33:0.23266 34:0.25276 35:0.24652 36:0.22102 37:0.069883 38:0.069883 39:0.1053 40:0.1053 41:0.2622 42:0.27782 43:0.26299 44:0.26299 45:1.4985 46:1.4945 47:1.5242 48:1.4676 49:1.5265 50:1.5265 51:1.6885 52:1.7841 53:0.35052 54:0.34454 55:0.38413 56:0.36614 57:0.059593 58:0.054035 59:0.05653 60:0.0721 61:8.5978 62:8.5869 63:8.6033 64:8.603 65:0.084622 66:0.084622 67:0.090403 68:0.087431 69:0.41834 70:0.44385 71:0.30484 72:0.31747 73:0.15847 74:0.11531 75:0.11667 76:0.10865 77:8.793 78:8.8174 79:8.6001 80:8.6001 81:8.5381 82:8.5381 83:9.052 84:9.0187 85:1.346 86:1.3657 87:1.3772 88:1.3417 89:0.1254 90:0.12603 91:0.096472 92:0.095469 93:0.1028 94:0.078251 95:0.11783 96:0.11737 97:0.66613 98:0.74393 99:0.53823 100:0.58683 101:0.18183 102:0.25258 103:0.089343 104:0.084013 105:1.3901 106:1.3902 107:1.4205 108:1.4559 109:0.21764 110:0.21764 111:0.12392 112:0.12392 113:0.35593 114:0.34112 115:0.27927 116:0.29172 117:0.011086 118:0.010445 119:0.0055986 120:0.0018881 
0 0 0 0 0 0 1000 0 0 0 0 0 0 0 1:0.0051845 2:0.0027411 3:0.0055869 4:0.0060135 5:0.18984 6:0.23524 7:0.18331 8:0.18331 9:0.15765 10:0.15765 11:0.1638 12:0.17768 13:0.11719 14:0.11137 15:0.091804 16:0.09654 17:8.2931 18:8.2931 19:8.2714 20:8.2446 21:1.4817 22:1.5645 23:1.4992 24:1.4992 25:1.3197 26:1.32 27:1.313 28:1.313 29:0.013714 30:0.009022 31:0.0034467 32:0.015787 33:0.22713 34:0.24749 35:0.24268 36:0.2145 37:0.11355 38:0.12358 39:0.099913 40:0.099913 41:0.25992 42:0.27937 43:0.26428 44:0.26428 45:1.5014 46:1.4987 47:1.526 48:1.4729 49:1.5414 50:1.5414 51:1.6946 52:1.7853 53:0.34186 54:0.33459 55:0.37897 56:0.35985 57:0.051513 58:0.048017 59:0.050162 60:0.066215 61:8.1591 62:8.1591 63:8.1842 64:8.1842 65:0.13174 66:0.13174 67:0.13741 68:0.1366 69:0.41135 70:0.43814 71:0.2955 72:0.30732 73:0.15092 74:0.11026 75:0.10831 76:0.10198 77:8.3596 78:8.3882 79:8.1728 80:8.1728 81:8.1654 82:8.1654 83:8.6359 84:8.6071 85:1.367 86:1.3798 87:1.3878 88:1.3878 89:0.1227 90:0.13861 91:0.098211 92:0.096484 93:0.090161 94:0.071083 95:0.10918 96:0.11385 97:0.7264 98:0.80528 99:0.59214 100:0.63927 101:0.17951 102:0.24577 103:0.080613 104:0.082901 105:1.3994 106:1.439 107:1.4266 108:1.4688 109:0.27514 110:0.27514 111:0.11419 112:0.11419 113:0.3404 114:0.32534 115:0.26425 116:0.27391 117:0.052781 118:0.030769 119:0.057009 120:0.02575 
0 0 0 0 0 0 1000 0 0 0 0 0 0 0 1:0.0053255 2:0.0011214 3:0.0075003 4:0.0024493 5:0.18757 6:0.22924 7:0.18333 8:0.18333 9:0.16308 10:0.16348 11:0.16776 12:0.17977 13:0.11467 14:0.10694 15:0.093393 16:0.097516 17:8.3771 18:8.3771 19:8.3581 20:8.3251 21:1.3022 22:1.3853 23:1.3257 24:1.3257 25:1.1329 26:1.1282 27:1.127 28:1.127 29:0.011202 30:0.0067565 31:0.0020863 32:0.011411 33:0.23058 34:0.25462 35:0.24565 36:0.21906 37:0.12035 38:0.12035 39:0.11152 40:0.11152 41:0.2638 42:0.28277 43:0.26808 44:0.26808 45:1.3207 46:1.316 47:1.3457 48:1.2905 49:1.3467 50:1.3467 51:1.5063 52:1.5989 53:0.35146 54:0.34835 55:0.38442 56:0.36869 57:0.056382 58:0.053399 59:0.056388 60:0.070459 61:8.2608 62:8.2608 63:8.2616 64:8.2616 65:0.13625 66:0.13625 67:0.14428 68:0.14007 69:0.41612 70:0.43714 71:0.30386 72:0.31012 73:0.15359 74:0.11421 75:0.10458 76:0.10694 77:8.4485 78:8.4715 79:8.255 80:8.255 81:8.2599 82:8.2599 83:8.703 84:8.6694 85:1.1774 86:1.1973 87:1.2043 88:1.2043 89:0.1282 90:0.14214 91:0.1019 92:0.1005 93:0.094709 94:0.07213 95:0.1086 96:0.11478 97:0.74644 98:0.82893 99:0.61523 100:0.66598 101:0.18526 102:0.25187 103:0.085707 104:0.091261 105:1.218 106:1.256 107:1.2454 108:1.2922 109:0.26822 110:0.26822 111:0.12111 112:0.12111 113:0.34111 114:0.32566 115:0.26436 116:0.27792 117:0.043722 118:0.025273 119:0.05093 120:0.020479 
0 0 0 0 0 0 1000 0 0 0 0 0 0 0 1:0.0045211 2:0.0040029 3:0.0099153 4:0.0080763 5:0.21121 6:0.24901 7:0.15454 8:0.15454 9:0.13772 10:0.13772 11:0.14209 12:0.15682 13:0.099205 14:0.091763 15:0.080981 16:0.084283 17:7.8449 18:7.8449 19:7.8263 20:7.7915 21:1.4875 22:1.5688 23:1.5115 24:1.5115 25:1.3209 26:1.3279 27:1.3189 28:1.3189 29:0.006766 30:0.0048096 31:0.00071786 32:0.010512 33:0.21697 34:0.24209 35:0.23661 36:0.20621 37:0.11583 38:0.13801 39:0.10542 40:0.10542 41:0.24735 42:0.2725 43:0.25917 44:0.25917 45:1.4848 46:1.4803 47:1.5087 48:1.4583 49:1.5114 50:1.5114 51:1.6626 52:1.7466 53:0.34517 54:0.34538 55:0.37025 56:0.35887 57:0.04539 58:0.044281 59:0.046935 60:0.058522 61:7.7333 62:7.7333 63:7.7313 64:7.7313 65:0.12691 66:0.13581 67:0.18375 68:0.18198 69:0.3969 70:0.41354 71:0.28597 72:0.28236 73:0.13485 74:0.10228 75:0.084588 76:0.092441 77:7.9157 78:7.9376 79:7.7212 80:7.7212 81:7.7941 82:7.7941 83:8.168 84:8.1344 85:1.3597 86:1.3778 87:1.3762 88:1.3762 89:0.11762 90:0.12399 91:0.097428 92:0.097454 93:0.070339 94:0.05246 95:0.083883 96:0.089106 97:0.82293 98:0.91346 99:0.68803 100:0.74188 101:0.17346 102:0.23283 103:0.066034 104:0.080948 105:1.3913 106:1.4418 107:1.4159 108:1.4557 109:0.31064 110:0.31064 111:0.10641 112:0.10641 113:0.30923 114:0.29451 115:0.23637 116:0.24842 117:0.045957 118:0.026327 119:0.069795 120:0.022118 
0 0 0 0 0 0 1000 0 0 0 0 0 0 0 1:0.0061083 2:0 3:0.0088429 4:0.0032014 5:0.15437 6:0.19644 7:0.15385 8:0.16536 9:0.16738 10:0.17059 11:0.17163 12:0.17919 13:0.11356 14:0.10419 15:0.095492 16:0.097085 17:8.4885 18:8.4885 19:8.4708 20:8.4328 21:1.4603 22:1.5451 23:1.4864 24:1.4864 25:1.2778 26:1.2714 27:1.269 28:1.269 29:0.012495 30:0.0062149 31:0.0030247 32:0.011319 33:0.22489 34:0.25012 35:0.24154 36:0.21519 37:0.09123 38:0.09123 39:0.11323 40:0.11323 41:0.2589 42:0.27751 43:0.25818 44:0.25818 45:1.4708 46:1.4651 47:1.4965 48:1.4403 49:1.4892 50:1.4892 51:1.6545 52:1.7465 53:0.36296 54:0.36126 55:0.38895 56:0.37521 57:0.059563 58:0.054627 59:0.05454 60:0.0696 61:8.379 62:8.3743 63:8.3632 64:8.3632 65:0.11071 66:0.11071 67:0.11444 68:0.10834 69:0.41955 70:0.43891 71:0.30793 72:0.31157 73:0.15344 74:0.1143 75:0.10468 76:0.10681 77:8.561 78:8.5835 79:8.3616 80:8.3616 81:8.3237 82:8.3237 83:8.8084 84:8.7713 85:1.3116 86:1.3327 87:1.345 88:1.3339 89:0.12466 90:0.14119 91:0.096042 92:0.096175 93:0.093705 94:0.068273 95:0.10554 96:0.11223 97:0.70961 98:0.78397 99:0.58148 100:0.63563 101:0.18252 102:0.25075 103:0.084599 104:0.084411 105:1.3643 106:1.3914 107:1.3947 108:1.4415 109:0.23624 110:0.23624 111:0.11844 112:0.11844 113:0.34765 114:0.33244 115:0.27098 116:0.28586 117:0.035542 118:0.029125 119:0.029593 120:0.023416 
0 0 0 0 0 0 0 0 0 0 0 0 0 1000 1:0.0043473 2:0.0035538 3:0.0079711 4:0.005179 5:0.15988 6:0.19653 7:0.17111 8:0.17529 9:0.14441 10:0.14441 11:0.14899 12:0.16234 13:0.10561 14:0.098554 15:0.086445 16:0.088031 17:8.1539 18:8.1539 19:8.135 20:8.1056 21:1.2563 22:1.3375 23:1.2782 24:1.2782 25:1.1009 26:1.1049 27:1.0972 28:1.0972 29:0.010674 30:0.0046886 31:0.0042799 32:0.0073935 33:0.23452 34:0.25862 35:0.24966 36:0.22184 37:0.095255 38:0.095255 39:0.10308 40:0.10308 41:0.25551 42:0.27737 43:0.2749 44:0.2749 45:1.2745 46:1.271 47:1.2992 48:1.2465 49:1.2998 50:1.2998 51:1.4518 52:1.5436 53:0.33881 54:0.33746 55:0.37037 56:0.35698 57:0.047924 58:0.04697 59:0.048789 60:0.06586 61:8.0415 62:8.0415 63:8.0443 64:8.0443 65:0.10804 66:0.10804 67:0.12476 68:0.12121 69:0.40101 70:0.42028 71:0.29007 72:0.29468 73:0.14556 74:0.10803 75:0.094772 76:0.099155 77:8.2305 78:8.2519 79:8.0401 80:8.0401 81:8.0676 82:8.0676 83:8.4789 84:8.4446 85:1.1529 86:1.1796 87:1.1709 88:1.1708 89:0.12263 90:0.13397 91:0.1015 92:0.10112 93:0.088998 94:0.068935 95:0.10045 96:0.10597 97:0.76344 98:0.86902 99:0.63036 100:0.67976 101:0.17719 102:0.24204 103:0.077579 104:0.09148 105:1.1764 106:1.2061 107:1.2029 108:1.248 109:0.24417 110:0.24417 111:0.12217 112:0.12217 113:0.31835 114:0.30426 115:0.24623 116:0.25862 117:0.02654 118:0.015785 119:0.024198 120:0.011938 
0 0 0 0 0 0 1000 0 0 0 0 0 0 0 1:0.0032487 2:0.0052088 3:0.0045395 4:0.009217 5:0.20962 6:0.23799 7:0.14367 8:0.14367 9:0.11565 10:0.1186 11:0.11973 12:0.13167 13:0.080684 14:0.072992 15:0.068608 16:0.063434 17:7.8772 18:7.8772 19:7.8618 20:7.8256 21:1.4137 22:1.4909 23:1.4426 24:1.4426 25:1.2598 26:1.2703 27:1.2636 28:1.2636 29:0.0027366 30:0.0020126 31:0.0043318 32:0.0045483 33:0.22215 34:0.2389 35:0.24086 36:0.21077 37:0.1055 38:0.11887 39:0.098634 40:0.098634 41:0.22978 42:0.25461 43:0.25568 44:0.25568 45:1.4136 46:1.4082 47:1.4369 48:1.3877 49:1.4257 50:1.4257 51:1.5715 52:1.656 53:0.32384 54:0.33034 55:0.34213 56:0.33696 57:0.038985 58:0.04034 59:0.042603 60:0.05444 61:7.7907 62:7.7907 63:7.7694 64:7.7694 65:0.11396 66:0.1205 67:0.19738 68:0.19054 69:0.36807 70:0.37727 71:0.25624 72:0.25201 73:0.12014 74:0.092327 75:0.071399 76:0.083456 77:7.9479 78:7.9703 79:7.7638 80:7.7638 81:7.9215 82:7.9215 83:8.1762 84:8.1383 85:1.3132 86:1.3421 87:1.3231 88:1.3231 89:0.11339 90:0.11193 91:0.095853 92:0.089843 93:0.063618 94:0.045925 95:0.070123 96:0.075291 97:0.88389 98:1.01 99:0.75373 100:0.80828 101:0.1628 102:0.21729 103:0.056154 104:0.073988 105:1.3288 106:1.3773 107:1.3496 108:1.3933 109:0.28889 110:0.29618 111:0.11445 112:0.11445 113:0.27574 114:0.26268 115:0.20888 116:0.22267 117:0.02702 118:0.015081 119:0.047747 120:0.011704 
0 0 0 0 0 0 1000 0 0 0 0 0 0 0 1:0.00093019 2:0.0059559 3:0.0085803 4:0.0073788 5:0.19154 6:0.22168 7:0.15377 8:0.15377 9:0.13207 10:0.13207 11:0.13555 12:0.15037 13:0.09367 14:0.084884 15:0.080688 16:0.075065 17:7.7438 18:7.7438 19:7.7278 20:7.6899 21:1.2025 22:1.2826 23:1.2312 24:1.2312 25:1.0378 26:1.0483 27:1.0403 28:1.0403 29:0.0040116 30:0.0030676 31:0.0027329 32:0.0039091 33:0.228 34:0.24772 35:0.24674 36:0.21723 37:0.11899 38:0.13415 39:0.11173 40:0.11173 41:0.25027 42:0.27637 43:0.27407 44:0.27407 45:1.2003 46:1.1948 47:1.2245 48:1.1736 49:1.2129 50:1.2129 51:1.3649 52:1.4508 53:0.34842 54:0.35393 55:0.36989 56:0.36326 57:0.046599 58:0.047915 59:0.050026 60:0.063003 61:7.6519 62:7.6519 63:7.6285 64:7.6285 65:0.12929 66:0.13144 67:0.17903 68:0.17139 69:0.39531 70:0.40495 71:0.27811 72:0.27295 73:0.13593 74:0.10557 75:0.07617 76:0.095532 77:7.8157 78:7.8387 79:7.625 80:7.625 81:7.7272 82:7.7272 83:8.0503 84:8.0114 85:1.0832 86:1.1138 87:1.099 88:1.099 89:0.12322 90:0.12574 91:0.10511 92:0.10087 93:0.075118 94:0.055637 95:0.081667 96:0.088054 97:0.86043 98:0.97266 99:0.72643 100:0.78251 101:0.17786 102:0.23672 103:0.069522 104:0.086437 105:1.1093 106:1.1602 107:1.1334 108:1.177 109:0.28832 110:0.28832 111:0.11807 112:0.11807 113:0.2964 114:0.28214 115:0.22602 116:0.24127 117:0.030326 118:0.014119 119:0.05142 120:0.011081 
0 0 0 0 0 0 1000 0 0 0 0 0 0 0 1:0.0014977 2:0.0028456 3:0.010525 4:0.0051767 5:0.16958 6:0.20336 7:0.15884 8:0.15884 9:0.14024 10:0.14125 11:0.1438 12:0.15603 13:0.097866 14:0.089027 15:0.083354 16:0.080128 17:7.9813 18:7.9813 19:7.9646 20:7.9275 21:1.304 22:1.3855 23:1.3312 24:1.3312 25:1.1354 26:1.1413 27:1.1356 28:1.1356 29:0.0060247 30:0.0024887 31:0.0019848 32:0.004689 33:0.22583 34:0.24855 35:0.24386 36:0.21524 37:0.11607 38:0.11607 39:0.11025 40:0.11025 41:0.25014 42:0.27434 43:0.26742 44:0.26742 45:1.3063 46:1.301 47:1.331 48:1.2787 49:1.3212 50:1.3212 51:1.4766 52:1.5645 53:0.3497 54:0.35275 55:0.37249 56:0.3636 57:0.048225 58:0.047499 59:0.05085 60:0.062876 61:7.8832 62:7.8832 63:7.8635 64:7.8635 65:0.1319 66:0.13374 67:0.14812 68:0.14138 69:0.39964 70:0.41276 71:0.28778 72:0.28293 73:0.13924 74:0.10592 75:0.083659 76:0.09649 77:8.0543 78:8.077 79:7.8611 80:7.8611 81:7.9135 82:7.9135 83:8.2931 84:8.2548 85:1.1776 86:1.2059 87:1.1982 88:1.1982 89:0.12079 90:0.1282 91:0.099771 92:0.10061 93:0.079258 94:0.058089 95:0.087437 96:0.093748 97:0.8036 98:0.90592 99:0.67148 100:0.72652 101:0.1761 102:0.23814 103:0.071796 104:0.085098 105:1.2103 106:1.2637 107:1.2367 108:1.281 109:0.26164 110:0.26164 111:0.11663 112:0.11663 113:0.30975 114:0.29544 115:0.23799 116:0.25275 117:0.033506 118:0.016818 119:0.050185 120:0.012918 
0 0 0 0 0 0 1000 0 0 0 0 0 0 0 1:0.0041279 2:0.0051912 3:0.0046586 4:0.00827 5:0.24367 6:0.24169 7:0.14348 8:0.14348 9:0.112 10:0.112 11:0.11614 12:0.13349 13:0.082783 14:0.075593 15:0.07073 16:0.063644 17:7.5654 18:7.5654 19:7.5501 20:7.515 21:1.158 22:1.2336 23:1.1873 24:1.1873 25:1.0122 26:1.0226 27:1.017 28:1.0174 29:0.0031885 30:0.0056543 31:0.0061057 32:0.0057831 33:0.23254 34:0.24636 35:0.24487 36:0.22017 37:0.10935 38:0.1193 39:0.099549 40:0.099549 41:0.23386 42:0.26205 43:0.26711 44:0.26711 45:1.1577 46:1.1525 47:1.1804 48:1.1325 49:1.1702 50:1.1702 51:1.3116 52:1.3952 53:0.32557 54:0.33391 55:0.34677 56:0.34276 57:0.040594 58:0.045086 59:0.04462 60:0.056486 61:7.4818 62:7.4818 63:7.4631 64:7.4631 65:0.11795 66:0.1244 67:0.23927 68:0.23176 69:0.37149 70:0.37776 71:0.25376 72:0.24902 73:0.12393 74:0.098293 75:0.067619 76:0.088707 77:7.6358 78:7.6581 79:7.455 80:7.455 81:7.6706 82:7.6706 83:7.8626 84:7.8254 85:1.073 86:1.0912 87:1.0764 88:1.0764 89:0.12326 90:0.11653 91:0.10114 92:0.096224 93:0.066515 94:0.051242 95:0.071882 96:0.077277 97:0.95619 98:1.0946 99:0.82189 100:0.87618 101:0.17276 102:0.2245 103:0.061101 104:0.084773 105:1.0782 106:1.1244 107:1.096 108:1.1395 109:0.29186 110:0.29606 111:0.12212 112:0.12212 113:0.26659 114:0.25321 115:0.20035 116:0.21459 117:0.024425 118:0.0118 119:0.04233 120:0.009896 
0 0 0 0 0 0 1000 0 0 0 0 0 0 0 1:0.0023516 2:0.0077935 3:0.0067135 4:0.011872 5:0.2287 6:0.25849 7:0.13847 8:0.13847 9:0.12555 10:0.12777 11:0.12914 12:0.14222 13:0.085442 14:0.076204 15:0.074333 16:0.068454 17:7.6957 18:7.6957 19:7.6794 20:7.6382 21:1.4166 22:1.496 23:1.4485 24:1.4485 25:1.2449 26:1.2547 27:1.2471 28:1.2496 29:0.0019398 30:0.0033087 31:0.0019831 32:0.006281 33:0.21594 34:0.23551 35:0.23728 36:0.20661 37:0.12088 38:0.13361 39:0.11194 40:0.11194 41:0.23516 42:0.26338 43:0.25967 44:0.25967 45:1.4023 46:1.3955 47:1.4258 48:1.3761 49:1.4112 50:1.4112 51:1.5631 52:1.6445 53:0.34692 54:0.3547 55:0.36156 56:0.3575 57:0.045266 58:0.046118 59:0.049487 60:0.05735 61:7.6094 62:7.6094 63:7.5781 64:7.5781 65:0.12007 66:0.12007 67:0.22215 68:0.21412 69:0.38481 70:0.39142 71:0.26446 72:0.25889 73:0.12517 74:0.098891 75:0.069611 76:0.089269 77:7.7623 78:7.7862 79:7.5717 80:7.5717 81:7.7198 82:7.7198 83:7.993 84:7.9534 85:1.2841 86:1.312 87:1.2997 88:1.2997 89:0.11837 90:0.11644 91:0.10052 92:0.09099 93:0.061908 94:0.042978 95:0.068465 96:0.074619 97:0.90367 98:1.0107 99:0.77178 100:0.83112 101:0.17178 102:0.22603 103:0.059882 104:0.076592 105:1.3155 106:1.3638 107:1.3376 108:1.3795 109:0.29945 110:0.31159 111:0.10963 112:0.10963 113:0.28658 114:0.27229 115:0.2167 116:0.23231 117:0.036112 118:0.02195 119:0.060874 120:0.018362 
0 0 0 0 0 0 1000 0 0 0 0 0 0 0 1:0.0016114 2:0.0084805 3:0.0084884 4:0.010919 5:0.16708 6:0.19304 7:0.14885 8:0.14885 9:0.12405 10:0.12669 11:0.12737 12:0.13881 13:0.085906 14:0.076543 15:0.073294 16:0.066403 17:7.8464 18:7.8464 19:7.8323 20:7.7931 21:1.2245 22:1.3034 23:1.2556 24:1.2556 25:1.0629 26:1.0746 27:1.0679 28:1.0682 29:0.0039326 30:0.0021584 31:0.0061627 32:0.0015014 33:0.23081 34:0.24665 35:0.24736 36:0.22013 37:0.11507 38:0.117 39:0.10433 40:0.10433 41:0.23874 42:0.26556 43:0.26566 44:0.26566 45:1.2233 46:1.2173 47:1.2475 48:1.1967 49:1.2267 50:1.2267 51:1.3781 52:1.4649 53:0.34164 54:0.35011 55:0.35812 56:0.35471 57:0.045145 58:0.046737 59:0.049729 60:0.061709 61:7.7613 62:7.7613 63:7.731 64:7.731 65:0.12267 66:0.12267 67:0.16128 68:0.1508 69:0.38338 70:0.38975 71:0.26594 72:0.26152 73:0.13054 74:0.10166 75:0.072251 76:0.09198 77:7.9191 78:7.9429 79:7.7324 80:7.7324 81:7.8468 82:7.8468 83:8.141 84:8.0989 85:1.1126 86:1.1483 87:1.1276 88:1.1276 89:0.12006 90:0.12102 91:0.10321 92:0.09667 93:0.074262 94:0.053655 95:0.076701 96:0.08315 97:0.86123 98:0.98919 99:0.73082 100:0.78764 101:0.17171 102:0.2298 103:0.06584 104:0.08189 105:1.1341 106:1.1849 107:1.158 108:1.2037 109:0.25997 110:0.25997 111:0.12289 112:0.12289 113:0.28481 114:0.27164 115:0.21763 116:0.2339 117:0.022023 118:0.0097564 119:0.041831 120:0.0067422 
0 0 0 0 0 0 1000 0 0 0 0 0 0 0 1:0.0011472 2:0.004103 3:0.011446 4:0.0070826 5:0.13547 6:0.16629 7:0.14757 8:0.14757 9:0.13237 10:0.1327 11:0.13478 12:0.14742 13:0.093875 14:0.084315 15:0.080361 16:0.076402 17:7.7111 18:7.7111 19:7.6951 20:7.6566 21:1.3315 22:1.4135 23:1.3589 24:1.3589 25:1.1612 26:1.1732 27:1.1639 28:1.1639 29:0.0049069 30:0.0017565 31:0.0036397 32:0.002738 33:0.22466 34:0.24396 35:0.24477 36:0.21471 37:0.091131 38:0.091131 39:0.10921 40:0.10921 41:0.24681 42:0.2734 43:0.26914 44:0.26914 45:1.3232 46:1.3181 47:1.3481 48:1.2974 49:1.3346 50:1.3346 51:1.4884 52:1.5738 53:0.35663 54:0.36176 55:0.37434 56:0.36828 57:0.045556 58:0.04548 59:0.049429 60:0.060573 61:7.6174 62:7.6024 63:7.5897 64:7.5897 65:0.10845 66:0.10845 67:0.12428 68:0.11754 69:0.39878 70:0.40925 71:0.28119 72:0.27641 73:0.13642 74:0.10504 75:0.075459 76:0.093356 77:7.7862 78:7.8097 79:7.591 80:7.591 81:7.6297 82:7.6297 83:8.0225 84:7.9816 85:1.1975 86:1.2289 87:1.2157 88:1.2157 89:0.11731 90:0.1242 91:0.098889 92:0.099205 93:0.074134 94:0.053644 95:0.079921 96:0.086267 97:0.80508 98:0.91343 99:0.67083 100:0.7281 101:0.17329 102:0.23496 103:0.067108 104:0.080323 105:1.2279 106:1.2611 107:1.256 108:1.2971 109:0.23658 110:0.23658 111:0.11399 112:0.11399 113:0.30018 114:0.28654 115:0.23087 116:0.24565 117:0.02913 118:0.014039 119:0.02692 120:0.010508 
0 0 0 0 0 0 1000 0 0 0 0 0 0 0 1:0.0048007 2:0.0048191 3:0.010065 4:0.012584 5:0.1744 6:0.20807 7:0.13528 8:0.13528 9:0.12941 10:0.13503 11:0.13289 12:0.13968 13:0.085196 14:0.075552 15:0.072909 16:0.070567 17:8.0217 18:8.0217 19:8.0064 20:7.9639 21:1.7288 22:1.8099 23:1.7591 24:1.7591 25:1.5509 26:1.5594 27:1.5537 28:1.554 29:0.0048949 30:0.001939 31:0.0029962 32:0.0073743 33:0.20823 34:0.22994 35:0.22995 36:0.19976 37:0.11629 38:0.13163 39:0.10451 40:0.10451 41:0.22875 42:0.2545 43:0.2429 44:0.2429 45:1.7149 46:1.7085 47:1.7392 48:1.6885 49:1.724 50:1.724 51:1.8794 52:1.9619 53:0.34605 54:0.35154 55:0.35715 56:0.35189 57:0.044633 58:0.041985 59:0.046071 60:0.052602 61:7.9305 62:7.9305 63:7.8985 64:7.8985 65:0.11761 66:0.11761 67:0.1594 68:0.15283 69:0.38172 70:0.39215 71:0.26886 72:0.26421 73:0.12307 74:0.094047 75:0.076164 76:0.084624 77:8.0904 78:8.1144 79:7.8964 80:7.8964 81:7.9669 82:7.9669 83:8.3231 84:8.2827 85:1.5822 86:1.609 87:1.6036 88:1.6036 89:0.10801 90:0.1129 91:0.087195 92:0.086484 93:0.061367 94:0.040105 95:0.068918 96:0.074569 97:0.81175 98:0.90904 99:0.68408 100:0.74309 101:0.16098 102:0.21887 103:0.055769 104:0.065666 105:1.622 106:1.6724 107:1.6481 108:1.6894 109:0.27333 110:0.27333 111:0.10396 112:0.10396 113:0.29719 114:0.28371 115:0.22778 116:0.24226 117:0.0408 118:0.026951 119:0.067243 120:0.021766 
0 0 0 0 0 0 0 0 0 0 0 0 0 947.9869501645683 1:0.0030839 2:0.0094671 3:0.0088973 4:0.013617 5:0.13996 6:0.16472 7:0.14427 8:0.14427 9:0.11695 10:0.12058 11:0.12003 12:0.12976 13:0.08169 14:0.072572 15:0.068839 16:0.062794 17:7.8712 18:7.8712 19:7.8571 20:7.8196 21:1.3177 22:1.3961 23:1.3477 24:1.3477 25:1.1612 26:1.174 27:1.1672 28:1.1672 29:0.0047109 30:0.0016694 31:0.0085869 32:0.0010161 33:0.23081 34:0.24436 35:0.24183 36:0.21983 37:0.08988 38:0.08988 39:0.097356 40:0.097356 41:0.23215 42:0.25689 43:0.25919 44:0.25919 45:1.317 46:1.3116 47:1.3413 48:1.2913 49:1.3199 50:1.3199 51:1.4686 52:1.5554 53:0.33459 54:0.34325 55:0.34907 56:0.34647 57:0.041644 58:0.043029 59:0.046512 60:0.058553 61:7.7874 62:7.7711 63:7.7573 64:7.7573 65:0.10841 66:0.10841 67:0.13511 68:0.12533 69:0.37438 70:0.3811 71:0.2593 72:0.25562 73:0.12607 74:0.09732 75:0.070659 76:0.087144 77:7.9462 78:7.9698 79:7.7609 80:7.7609 81:7.8656 82:7.8656 83:8.1658 84:8.1231 85:1.2126 86:1.2448 87:1.2252 88:1.2252 89:0.11459 90:0.11623 91:0.099238 92:0.09357 93:0.071826 94:0.051661 95:0.073406 96:0.079323 97:0.84242 98:0.97891 99:0.71296 100:0.76895 101:0.1645 102:0.22264 103:0.060968 104:0.0762 105:1.2284 106:1.2686 107:1.2529 108:1.2979 109:0.23273 110:0.23273 111:0.12253 112:0.12253 113:0.27743 114:0.26521 115:0.21273 116:0.22807 117:0.019592 118:0.0080505 119:0.027971 120:0.0049213 
0 0 0 0 0 0 1000 0 0 0 0 0 0 0 1:0.0013425 2:0.0095317 3:0.0081887 4:0.012298 5:0.21311 6:0.23749 7:0.14242 8:0.14242 9:0.12138 10:0.12138 11:0.12509 12:0.14252 13:0.087843 14:0.078293 15:0.076142 16:0.068191 17:7.362 18:7.362 19:7.3478 20:7.3059 21:1.1062 22:1.1851 23:1.1384 24:1.1384 25:0.94066 26:0.95214 27:0.94407 28:0.94757 29:0.0021262 30:0.0049805 31:0.0053449 32:0.0037605 33:0.22966 34:0.2448 35:0.24897 36:0.21956 37:0.12472 38:0.12983 39:0.11097 40:0.11097 41:0.24125 42:0.272 43:0.27553 44:0.27553 45:1.0912 46:1.0848 47:1.1149 48:1.066 49:1.0966 50:1.0966 51:1.2459 52:1.3278 53:0.35502 54:0.36533 55:0.37088 56:0.369 57:0.046717 58:0.050544 59:0.051943 60:0.060971 61:7.2763 62:7.2763 63:7.2458 64:7.2458 65:0.12208 66:0.12208 67:0.21771 68:0.20784 69:0.39256 70:0.39553 71:0.26465 72:0.25889 73:0.132 74:0.10679 75:0.064436 76:0.095371 77:7.4317 78:7.456 79:7.2426 80:7.2426 81:7.4048 82:7.4048 83:7.6579 84:7.6163 85:0.98481 86:1.0148 87:0.99583 88:0.99583 89:0.12701 90:0.12266 91:0.11017 92:0.098707 93:0.068596 94:0.050669 95:0.071556 96:0.078354 97:0.93968 98:1.0631 99:0.80343 100:0.86317 101:0.18138 102:0.23576 103:0.066526 104:0.087206 105:1.0064 106:1.0534 107:1.0285 108:1.0704 109:0.29854 110:0.3069 111:0.11967 112:0.11967 113:0.27901 114:0.26486 115:0.21079 116:0.22749 117:0.028373 118:0.012862 119:0.048451 120:0.010863 
0 0 0 0 0 0 1000 0 0 0 0 0 0 0 1:0 2:0.0062892 3:0.012639 4:0.0070654 5:0.15886 6:0.1868 7:0.14465 8:0.14465 9:0.13488 10:0.13488 11:0.13785 12:0.15324 13:0.095942 14:0.085038 15:0.082279 16:0.076879 17:7.4344 18:7.4344 19:7.4197 20:7.3758 21:1.161 22:1.2434 23:1.1924 24:1.1924 25:0.98135 26:0.99398 27:0.98482 28:0.9867 29:0.0037033 30:0.0037084 31:0.0037797 32:0.0027132 33:0.22708 34:0.24559 35:0.24879 36:0.21829 37:0.1227 38:0.1227 39:0.11936 40:0.11936 41:0.25341 42:0.28166 43:0.27779 44:0.27779 45:1.1421 46:1.1357 47:1.167 48:1.1164 49:1.1468 50:1.1468 51:1.3036 52:1.3867 53:0.37452 54:0.38306 55:0.38923 56:0.38603 57:0.051102 58:0.052584 59:0.056185 60:0.065336 61:7.339 62:7.339 63:7.3075 64:7.3075 65:0.12608 66:0.12608 67:0.15963 68:0.1499 69:0.41081 70:0.41597 71:0.28238 72:0.27644 73:0.14121 74:0.1127 75:0.069961 76:0.10021 77:7.5063 78:7.5313 79:7.3091 80:7.3091 81:7.3758 82:7.3758 83:7.738 84:7.6945 85:1.0123 86:1.0445 87:1.0319 88:1.0319 89:0.12623 90:0.12927 91:0.10824 92:0.1024 93:0.07489 94:0.053967 95:0.078106 96:0.085585 97:0.8614 98:0.96738 99:0.72485 100:0.78629 101:0.18457 102:0.24457 103:0.072298 104:0.087555 105:1.0485 106:1.0984 107:1.076 108:1.117 109:0.26698 110:0.26698 111:0.11684 112:0.11684 113:0.29994 114:0.28544 115:0.22952 116:0.24678 117:0.033262 118:0.014534 119:0.054053 120:0.01174 
0 0 0 0 0 0 0 0 0 0 0 0 0 928.9056699693897 1:0.0030066 2:0.011644 3:0.010753 4:0.01493 5:0.16337 6:0.18245 7:0.13801 8:0.13801 9:0.11414 10:0.11414 11:0.1162 12:0.13194 13:0.083494 14:0.073392 15:0.070721 16:0.062566 17:7.3091 18:7.3091 19:7.2963 20:7.2549 21:1.0517 22:1.1297 23:1.0846 24:1.0846 25:0.89209 26:0.90328 27:0.89716 28:0.90103 29:0.0039088 30:0.0055192 31:0.0039985 32:0.001478 33:0.23829 34:0.24797 35:0.24443 36:0.22788 37:0.12136 38:0.11626 39:0.10336 40:0.10336 41:0.23503 42:0.26578 43:0.27358 44:0.27358 45:1.0369 46:1.0308 47:1.0609 48:1.0127 49:1.0344 50:1.0344 51:1.1816 52:1.2645 53:0.35365 54:0.36675 55:0.36545 56:0.36687 57:0.045707 58:0.050517 59:0.052273 60:0.058911 61:7.2215 62:7.2215 63:7.1928 64:7.1928 65:0.11608 66:0.11608 67:0.17711 68:0.16512 69:0.38638 70:0.38631 71:0.25654 72:0.25165 73:0.13119 74:0.10407 75:0.060496 76:0.094353 77:7.3828 78:7.4077 79:7.1965 80:7.1965 81:7.3496 82:7.3496 83:7.5982 84:7.553 85:0.94034 86:0.96457 87:0.94851 88:0.94851 89:0.12598 90:0.12133 91:0.11047 92:0.099066 93:0.071562 94:0.053167 95:0.069761 96:0.076636 97:0.93062 98:1.0745 99:0.79528 100:0.85531 101:0.17838 102:0.23336 103:0.065858 104:0.085688 105:0.95301 106:0.99938 107:0.97621 108:1.0189 109:0.26939 110:0.26939 111:0.12757 112:0.12757 113:0.26775 114:0.25495 115:0.20363 116:0.22092 117:0.019597 118:0.0059192 119:0.035678 120:0.0044449 
0 0 0 0 0 0 1000 0 0 0 0 0 0 0 1:0.0023642 2:0.010045 3:0.0090105 4:0.013588 5:0.21387 6:0.2368 7:0.14137 8:0.14137 9:0.11328 10:0.11328 11:0.11956 12:0.14125 13:0.089738 14:0.080826 15:0.078338 16:0.070131 17:7.0352 18:7.0352 19:7.0201 20:6.9808 21:1.0209 22:1.0993 23:1.0507 24:1.0507 25:0.86157 26:0.8742 27:0.86577 28:0.86871 29:0.0027006 30:0.0070025 31:0.0043656 32:0.0048938 33:0.23374 34:0.24673 35:0.24986 36:0.22294 37:0.124 38:0.13161 39:0.10951 40:0.10951 41:0.24484 42:0.27498 43:0.2825 44:0.2825 45:1.002 46:0.99664 47:1.0254 48:0.97851 49:1.0122 50:1.0122 51:1.1567 52:1.2366 53:0.35745 54:0.36763 55:0.37518 56:0.37336 57:0.044847 58:0.050389 59:0.050176 60:0.056864 61:6.9515 62:6.9515 63:6.9223 64:6.9223 65:0.12395 66:0.12395 67:0.22272 68:0.21498 69:0.39539 70:0.39831 71:0.26418 72:0.25824 73:0.13355 74:0.10924 75:0.060846 76:0.095966 77:7.1071 78:7.1309 79:6.9176 80:6.9176 81:7.0907 82:7.0907 83:7.3384 84:7.298 85:0.90656 86:0.92885 87:0.9115 88:0.9115 89:0.12933 90:0.12349 91:0.1122 92:0.10204 93:0.067458 94:0.052285 95:0.070994 96:0.077471 97:0.96481 98:1.094 99:0.82366 100:0.88276 101:0.18467 102:0.23804 103:0.066561 104:0.09053 105:0.91957 106:0.96383 107:0.94115 108:0.97982 109:0.3013 110:0.30939 111:0.11984 112:0.11984 113:0.27246 114:0.2584 115:0.2053 116:0.22081 117:0.029833 118:0.011227 119:0.046768 120:0.010127 
0 0 0 0 0 0 1000 0 0 0 0 0 0 0 1:0.0018253 2:0.008393 3:0.0071977 4:0.012635 5:0.20007 6:0.22692 7:0.13112 8:0.13112 9:0.1157 10:0.1157 11:0.11878 12:0.13527 13:0.08403 14:0.074856 15:0.072524 16:0.067096 17:7.2954 18:7.2954 19:7.2802 20:7.2391 21:1.3529 22:1.4323 23:1.3827 24:1.3827 25:1.1857 26:1.1979 27:1.1891 28:1.1919 29:0.00098436 30:0.0032668 31:0.0036275 32:0.0045723 33:0.21858 34:0.23431 35:0.24152 36:0.20898 37:0.11869 38:0.12872 39:0.10711 40:0.10711 41:0.23455 42:0.26188 43:0.26649 44:0.26649 45:1.3305 46:1.3248 47:1.3541 48:1.3067 49:1.3411 50:1.3411 51:1.4884 52:1.5673 53:0.35191 54:0.36066 55:0.36533 56:0.36286 57:0.041199 58:0.043729 59:0.046213 60:0.0554 61:7.2092 62:7.2092 63:7.1781 64:7.1781 65:0.11615 66:0.11615 67:0.20247 68:0.19606 69:0.38605 70:0.39134 71:0.26021 72:0.25466 73:0.12454 74:0.099678 75:0.061541 76:0.087178 77:7.3656 78:7.3896 79:7.1736 80:7.1736 81:7.3142 82:7.3142 83:7.5987 84:7.5584 85:1.2226 86:1.2516 87:1.2322 88:1.2322 89:0.11706 90:0.11433 91:0.10293 92:0.091617 93:0.058296 94:0.041732 95:0.063688 96:0.069628 97:0.91496 98:1.031 99:0.77801 100:0.83787 101:0.17164 102:0.2255 103:0.0568 104:0.075766 105:1.2453 106:1.2903 107:1.2685 108:1.3062 109:0.29519 110:0.30798 111:0.10807 112:0.10807 113:0.27558 114:0.26185 115:0.20812 116:0.22278 117:0.034534 118:0.017003 119:0.055161 120:0.014351 
0 0 0 0.1470060697293784 0 0 0 0 0 0 0 0 0 0 1:0.0016976 2:0.011485 3:0.010406 4:0.01214 5:0.19073 6:0.21431 7:0.14567 8:0.14567 9:0.11861 10:0.11861 11:0.12444 12:0.14491 13:0.092512 14:0.083212 15:0.080317 16:0.072463 17:7.1417 18:7.1417 19:7.1266 20:7.0873 21:0.99398 22:1.0733 23:1.0236 24:1.0236 25:0.83238 26:0.84536 27:0.83704 28:0.83894 29:0.0035719 30:0.006326 31:0.0052722 32:0.0037009 33:0.23599 34:0.24976 35:0.25295 36:0.22527 37:0.12514 38:0.133 39:0.11103 40:0.11103 41:0.24956 42:0.27888 43:0.28456 44:0.28456 45:0.97827 46:0.97293 47:1.0022 48:0.95417 49:0.98714 50:0.98714 51:1.1343 52:1.2161 53:0.36107 54:0.3707 55:0.37936 56:0.37698 57:0.046624 58:0.051484 59:0.051839 60:0.060932 61:7.0575 62:7.0575 63:7.0264 64:7.0264 65:0.12654 66:0.12654 67:0.19723 68:0.18878 69:0.40038 70:0.40411 71:0.2704 72:0.26463 73:0.13761 74:0.11157 75:0.064147 76:0.098387 77:7.215 78:7.2389 79:7.0242 80:7.0242 81:7.165 82:7.165 83:7.4458 84:7.4045 85:0.87647 86:0.90364 87:0.88452 88:0.88452 89:0.12992 90:0.12687 91:0.11496 92:0.10443 93:0.072572 94:0.055895 95:0.075539 96:0.082317 97:0.93304 98:1.0604 99:0.7927 100:0.85159 101:0.1859 102:0.24175 103:0.070143 104:0.092265 105:0.89261 106:0.93874 107:0.91592 108:0.95579 109:0.30199 110:0.30199 111:0.12218 112:0.12218 113:0.27971 114:0.26568 115:0.21206 116:0.22801 117:0.028271 118:0.0095684 119:0.045133 120:0.0082663 
0 0 0 0 0 0 120.8114605541738 0 0 0 0 0 0 0 1:0.0016976 2:0.011485 3:0.010406 4:0.01214 5:0.19073 6:0.21431 7:0.14567 8:0.14567 9:0.11861 10:0.11861 11:0.12444 12:0.14491 13:0.092512 14:0.083212 15:0.080317 16:0.072463 17:7.1417 18:7.1417 19:7.1266 20:7.0873 21:0.99398 22:1.0733 23:1.0236 24:1.0236 25:0.83238 26:0.84536 27:0.83704 28:0.83894 29:0.0035719 30:0.006326 31:0.0052722 32:0.0037009 33:0.23599 34:0.24976 35:0.25295 36:0.22527 37:0.12514 38:0.133 39:0.11103 40:0.11103 41:0.24956 42:0.27888 43:0.28456 44:0.28456 45:0.97827 46:0.97293 47:1.0022 48:0.95417 49:0.98714 50:0.98714 51:1.1343 52:1.2161 53:0.36107 54:0.3707 55:0.37936 56:0.37698 57:0.046624 58:0.051484 59:0.051839 60:0.060932 61:7.0575 62:7.0575 63:7.0264 64:7.0264 65:0.12654 66:0.12654 67:0.19723 68:0.18878 69:0.40038 70:0.40411 71:0.2704 72:0.26463 73:0.13761 74:0.11157 75:0.064147 76:0.098387 77:7.215 78:7.2389 79:7.0242 80:7.0242 81:7.165 82:7.165 83:7.4458 84:7.4045 85:0.87647 86:0.90364 87:0.88452 88:0.88452 89:0.12992 90:0.12687 91:0.11496 92:0.10443 93:0.072572 94:0.055895 95:0.075539 96:0.082317 97:0.93304 98:1.0604 99:0.7927 100:0.85159 101:0.1859 102:0.24175 103:0.070143 104:0.092265 105:0.89261 106:0.93874 107:0.91592 108:0.95579 109:0.30199 110:0.30199 111:0.12218 112:0.12218 113:0.27971 114:0.26568 115:0.21206 116:0.22801 117:0.028271 118:0.0095684 119:0.045133 120:0.0082663 
0 0 0 0 0 0 991.2153158693126 0 0 0 0 0 0 0 1:0.0016976 2:0.011485 3:0.010406 4:0.01214 5:0.19073 6:0.21431 7:0.14567 8:0.14567 9:0.11861 10:0.11861 11:0.12444 12:0.14491 13:0.092512 14:0.083212 15:0.080317 16:0.072463 17:7.1417 18:7.1417 19:7.1266 20:7.0873 21:0.99398 22:1.0733 23:1.0236 24:1.0236 25:0.83238 26:0.84536 27:0.83704 28:0.83894 29:0.0035719 30:0.006326 31:0.0052722 32:0.0037009 33:0.23599 34:0.24976 35:0.25295 36:0.22527 37:0.12514 38:0.133 39:0.11103 40:0.11103 41:0.24956 42:0.27888 43:0.28456 44:0.28456 45:0.97827 46:0.97293 47:1.0022 48:0.95417 49:0.98714 50:0.98714 51:1.1343 52:1.2161 53:0.36107 54:0.3707 55:0.37936 56:0.37698 57:0.046624 58:0.051484 59:0.051839 60:0.060932 61:7.0575 62:7.0575 63:7.0264 64:7.0264 65:0.12654 66:0.12654 67:0.19723 68:0.18878 69:0.40038 70:0.40411 71:0.2704 72:0.26463 73:0.13761 74:0.11157 75:0.064147 76:0.098387 77:7.215 78:7.2389 79:7.0242 80:7.0242 81:7.165 82:7.165 83:7.4458 84:7.4045 85:0.87647 86:0.90364 87:0.88452 88:0.88452 89:0.12992 90:0.12687 91:0.11496 92:0.10443 93:0.072572 94:0.055895 95:0.075539 96:0.082317 97:0.93304 98:1.0604 99:0.7927 100:0.85159 101:0.1859 102:0.24175 103:0.070143 104:0.092265 105:0.89261 106:0.93874 107:0.91592 108:0.95579 109:0.30199 110:0.30199 111:0.12218 112:0.12218 113:0.27971 114:0.26568 115:0.21206 116:0.22801 117:0.028271 118:0.0095684 119:0.045133 120:0.0082663 
0 0 0 0.1309299478553361 0 0 0 0 0 0 0 0 0 0 1:0.0016976 2:0.011485 3:0.010406 4:0.01214 5:0.19073 6:0.21431 7:0.14567 8:0.14567 9:0.11861 10:0.11861 11:0.12444 12:0.14491 13:0.092512 14:0.083212 15:0.080317 16:0.072463 17:7.1417 18:7.1417 19:7.1266 20:7.0873 21:0.99398 22:1.0733 23:1.0236 24:1.0236 25:0.83238 26:0.84536 27:0.83704 28:0.83894 29:0.0035719 30:0.006326 31:0.0052722 32:0.0037009 33:0.23599 34:0.24976 35:0.25295 36:0.22527 37:0.12514 38:0.133 39:0.11103 40:0.11103 41:0.24956 42:0.27888 43:0.28456 44:0.28456 45:0.97827 46:0.97293 47:1.0022 48:0.95417 49:0.98714 50:0.98714 51:1.1343 52:1.2161 53:0.36107 54:0.3707 55:0.37936 56:0.37698 57:0.046624 58:0.051484 59:0.051839 60:0.060932 61:7.0575 62:7.0575 63:7.0264 64:7.0264 65:0.12654 66:0.12654 67:0.19723 68:0.18878 69:0.40038 70:0.40411 71:0.2704 72:0.26463 73:0.13761 74:0.11157 75:0.064147 76:0.098387 77:7.215 78:7.2389 79:7.0242 80:7.0242 81:7.165 82:7.165 83:7.4458 84:7.4045 85:0.87647 86:0.90364 87:0.88452 88:0.88452 89:0.12992 90:0.12687 91:0.11496 92:0.10443 93:0.072572 94:0.055895 95:0.075539 96:0.082317 97:0.93304 98:1.0604 99:0.7927 100:0.85159 101:0.1859 102:0.24175 103:0.070143 104:0.092265 105:0.89261 106:0.93874 107:0.91592 108:0.95579 109:0.30199 110:0.30199 111:0.12218 112:0.12218 113:0.27971 114:0.26568 115:0.21206 116:0.22801 117:0.028271 118:0.0095684 119:0.045133 120:0.0082663 
0 0 0 0 0 0 1000 0 0 0 0 0 0 0 1:0.0010336 2:0.0027054 3:0.01141 4:0.0053762 5:0.16048 6:0.1935 7:0.15248 8:0.15248 9:0.14023 10:0.14144 11:0.14329 12:0.15514 13:0.096867 14:0.087153 15:0.083632 16:0.079296 17:7.8755 18:7.8755 19:7.8595 20:7.8194 21:1.3348 22:1.4171 23:1.3635 24:1.3635 25:1.1594 26:1.1664 27:1.161 28:1.161 29:0.0052585 30:0.0022427 31:0.0018788 32:0.0041857 33:0.22287 34:0.24518 35:0.24241 36:0.21328 37:0.11276 38:0.11276 39:0.11327 40:0.11327 41:0.24976 42:0.27483 43:0.26538 44:0.26538 45:1.3291 46:1.3233 47:1.354 48:1.3019 49:1.3404 50:1.3404 51:1.4977 52:1.584 53:0.3585 54:0.36295 55:0.37752 56:0.37028 57:0.049196 58:0.048314 59:0.052551 60:0.062484 61:7.7812 62:7.7812 63:7.7527 64:7.7527 65:0.1316 66:0.1316 67:0.14454 68:0.13698 69:0.40299 70:0.4141 71:0.28682 72:0.28167 73:0.13891 74:0.10681 75:0.080146 76:0.096562 77:7.9477 78:7.9713 79:7.7521 80:7.7521 81:7.7956 82:7.7956 83:8.1847 84:8.1445 85:1.195 86:1.2235 87:1.2173 88:1.2173 89:0.12024 90:0.12741 91:0.099178 92:0.10036 93:0.076646 94:0.054913 95:0.083592 96:0.09025 97:0.80647 98:0.90544 99:0.67398 100:0.73149 101:0.17666 102:0.23854 103:0.070664 104:0.083027 105:1.2326 106:1.2854 107:1.2601 108:1.3032 109:0.25737 110:0.25737 111:0.11425 112:0.11425 113:0.3094 114:0.29504 115:0.23775 116:0.25328 117:0.035128 118:0.017906 119:0.04896 120:0.013941 
0 0 0 0 0 0 1000 0 0 0 0 0 0 0 1:0.0044162 2:0.0074852 3:0.0066337 4:0.011254 5:0.27399 6:0.27187 7:0.15098 8:0.15098 9:0.13468 10:0.13695 11:0.1395 12:0.15297 13:0.09158 14:0.083553 15:0.075995 16:0.075084 17:7.9447 18:7.9447 19:7.9286 20:7.8884 21:1.4319 22:1.5109 23:1.4624 24:1.4624 25:1.2632 26:1.2687 27:1.2644 28:1.2644 29:0.0044064 30:0.0056019 31:0.00079188 32:0.010783 33:0.21617 34:0.2401 35:0.23564 36:0.20602 37:0.12084 38:0.13874 39:0.11566 40:0.11566 41:0.24336 42:0.26978 43:0.25714 44:0.25714 45:1.4282 46:1.4216 47:1.4514 48:1.4004 49:1.4447 50:1.4447 51:1.597 52:1.6803 53:0.33933 54:0.34383 55:0.3605 56:0.35246 57:0.048145 58:0.048187 59:0.05066 60:0.059675 61:7.8509 62:7.8509 63:7.8322 64:7.8322 65:0.12503 66:0.13136 67:0.25426 68:0.24782 69:0.38661 70:0.39738 71:0.27337 72:0.26766 73:0.12851 74:0.10005 75:0.079955 76:0.092616 77:8.0091 78:8.0317 79:7.82 80:7.82 81:7.9835 82:7.9835 83:8.2468 84:8.2115 85:1.3077 86:1.3295 87:1.3248 88:1.3248 89:0.12214 90:0.12091 91:0.10176 92:0.094782 93:0.066463 94:0.047754 95:0.077186 96:0.082982 97:0.90388 98:1.0012 99:0.77323 100:0.8296 101:0.17513 102:0.22938 103:0.064611 104:0.081819 105:1.341 106:1.3912 107:1.3611 108:1.405 109:0.3131 110:0.32363 111:0.1107 112:0.1107 113:0.29828 114:0.28318 115:0.22546 116:0.24017 117:0.04178 118:0.028062 119:0.068846 120:0.024015 
0 0 0 0 0 0 1000 0 0 0 0 0 0 0 1:0.0040732 2:0.0049686 3:0.0045641 4:0.0090049 5:0.22191 6:0.25038 7:0.14377 8:0.14377 9:0.11251 10:0.11251 11:0.11675 12:0.13325 13:0.084131 14:0.07751 15:0.069529 16:0.067765 17:7.5946 18:7.5946 19:7.5775 20:7.5448 21:1.3819 22:1.459 23:1.4072 24:1.4072 25:1.2337 26:1.2446 27:1.2361 28:1.2361 29:0.0030819 30:0.0036926 31:0.0041722 32:0.0067067 33:0.22271 34:0.23935 35:0.24219 36:0.21056 37:0.10376 38:0.11865 39:0.098564 40:0.098564 41:0.2356 42:0.25864 43:0.26216 44:0.26216 45:1.379 46:1.3749 47:1.4019 48:1.3545 49:1.4003 50:1.4003 51:1.5415 52:1.6238 53:0.32453 54:0.32922 55:0.34661 56:0.3398 57:0.036492 58:0.038944 59:0.039534 60:0.054096 61:7.4971 62:7.4971 63:7.491 64:7.491 65:0.11343 66:0.12416 67:0.20877 68:0.20558 69:0.37169 70:0.38295 71:0.25891 72:0.25439 73:0.12143 74:0.093715 75:0.070099 76:0.083281 77:7.6668 78:7.6883 79:7.4814 80:7.4814 81:7.6454 82:7.6454 83:7.9056 84:7.8707 85:1.2868 86:1.3099 87:1.2912 88:1.2912 89:0.11446 90:0.11247 91:0.096744 92:0.092727 93:0.061196 94:0.04663 95:0.070516 96:0.075113 97:0.90112 98:1.0257 99:0.76577 100:0.81889 101:0.16533 102:0.21897 103:0.055511 104:0.076349 105:1.2958 106:1.3418 107:1.316 108:1.3559 109:0.29685 110:0.30465 111:0.11101 112:0.11101 113:0.27342 114:0.26014 115:0.20641 116:0.21825 117:0.032001 118:0.01605 119:0.050652 120:0.013271 
0 0 0 0 0 0 1000 0 0 0 0 0 0 0 1:0.0034127 2:0.0035143 3:0.0039159 4:0.0072469 5:0.2504 6:0.24696 7:0.15087 8:0.15087 9:0.10945 10:0.10958 11:0.11455 12:0.13065 13:0.084404 14:0.08054 15:0.064666 16:0.069398 17:7.8928 18:7.8928 19:7.8737 20:7.849 21:1.4987 22:1.5731 23:1.5196 24:1.5196 25:1.3696 26:1.3777 27:1.3686 28:1.3686 29:0.007569 30:0.006971 31:0.0073466 32:0.012673 33:0.2258 34:0.24333 35:0.24244 36:0.21127 37:0.089931 38:0.10672 39:0.089789 40:0.089789 41:0.22961 42:0.25324 43:0.25627 44:0.25627 45:1.513 46:1.5104 47:1.535 48:1.4882 49:1.5457 50:1.5457 51:1.6797 52:1.7642 53:0.29645 54:0.29715 55:0.32597 56:0.31506 57:0.033071 58:0.035254 59:0.034151 60:0.052274 61:7.7838 62:7.7838 63:7.8035 64:7.8035 65:0.10774 66:0.11752 67:0.22886 68:0.22859 69:0.35508 70:0.37232 71:0.25026 72:0.25245 73:0.11707 74:0.08744 75:0.080044 76:0.079198 77:7.963 78:7.9848 79:7.7875 80:7.7875 81:7.9881 82:7.9881 83:8.2106 84:8.1817 85:1.4341 86:1.4527 87:1.4364 88:1.4364 89:0.1121 90:0.10977 91:0.090044 92:0.093413 93:0.062415 94:0.050469 95:0.076315 96:0.079258 97:0.89915 98:1.0314 99:0.76588 100:0.81245 101:0.15857 102:0.21058 103:0.053179 104:0.075986 105:1.4333 106:1.4695 107:1.4498 108:1.4909 109:0.29864 110:0.30279 111:0.11357 112:0.11357 113:0.27037 114:0.25764 115:0.20415 116:0.21271 117:0.034289 118:0.020322 119:0.051666 120:0.017224 
0 0 0.4374162279533655 0 0 0 0 3.236188159893144 0 0 0 0 0 0 1:0.011217 2:0.0016328 3:0.0024696 4:0.00094027 5:0.18886 6:0.18428 7:0.11355 8:0.11355 9:0.074069 10:0.083092 11:0.081931 12:0.093931 13:0.055492 14:0.053111 15:0.043232 16:0.04019 17:7.9886 18:7.9886 19:7.9749 20:7.9446 21:1.758 22:1.8214 23:1.7907 24:1.7907 25:1.6517 26:1.6529 27:1.6548 28:1.6533 29:0.012981 30:0.021179 31:0.017826 32:0.028267 33:0.22792 34:0.23412 35:0.21837 36:0.20605 37:0.085206 38:0.088506 39:0.077703 40:0.077703 41:0.17903 42:0.20995 43:0.22523 44:0.2221 45:1.7673 46:1.7617 47:1.7856 48:1.7435 49:1.7821 50:1.7821 51:1.9005 52:1.9778 53:0.25101 54:0.26308 55:0.26634 56:0.26618 57:0.033563 58:0.040085 59:0.037455 60:0.040122 61:7.9236 62:7.9236 63:7.9194 64:7.9194 65:0.083983 66:0.086492 67:0.42424 68:0.42501 69:0.29319 70:0.29651 71:0.19194 72:0.18913 73:0.084809 74:0.064742 75:0.067622 76:0.067342 77:8.0472 78:8.067 79:7.8935 80:7.8935 81:8.3878 82:8.313 83:8.254 84:8.2245 85:1.7102 86:1.724 87:1.7167 88:1.7167 89:0.1028 90:0.087453 91:0.070443 92:0.076032 93:0.04048 94:0.033464 95:0.048586 96:0.049911 97:1.1582 98:1.3392 99:1.0362 100:1.0849 101:0.14667 102:0.17515 103:0.034209 104:0.050299 105:1.7165 106:1.739 107:1.7163 108:1.762 109:0.25197 110:0.25579 111:0.1268 112:0.1268 113:0.20907 114:0.1982 115:0.15165 116:0.1616 117:0.033426 118:0.030543 119:0.053465 120:0.034587 
0 0 0 0 0 0 1000 0 0 0 0 0 0 0 1:0.0065648 2:0.0049371 3:0 4:0.013717 5:0.28551 6:0.32362 7:0.22671 8:0.22671 9:0.17158 10:0.17158 11:0.18103 12:0.19656 13:0.13193 14:0.13038 15:0.09633 16:0.1003 17:8.9687 18:8.9687 19:8.9444 20:8.9304 21:1.2771 22:1.3553 23:1.2899 24:1.2899 25:1.1352 26:1.1377 27:1.1335 28:1.1316 29:0.012533 30:0.012302 31:0.010483 32:0.012758 33:0.25157 34:0.26315 35:0.25872 36:0.2341 37:0.1053 38:0.13494 39:0.10065 40:0.10065 41:0.27392 42:0.28805 43:0.28316 44:0.28316 45:1.3401 46:1.339 47:1.3634 48:1.308 49:1.3955 50:1.3955 51:1.5416 52:1.6416 53:0.30563 54:0.29204 55:0.35805 56:0.33508 57:0.059396 58:0.056822 59:0.054208 60:0.061376 61:8.82 62:8.82 63:8.8852 64:8.8852 65:0.13533 66:0.13533 67:0.20404 68:0.18932 69:0.40419 70:0.43721 71:0.29076 72:0.30426 73:0.15974 74:0.11643 75:0.1374 76:0.11404 77:9.0251 78:9.0596 79:8.8627 80:8.8627 81:8.9366 82:8.9366 83:9.3168 84:9.2979 85:1.2302 86:1.2413 87:1.2453 88:1.2453 89:0.13954 90:0.15422 91:0.11356 92:0.10612 93:0.11436 94:0.097206 95:0.13958 96:0.14292 97:0.75224 98:0.84497 99:0.62197 100:0.65715 101:0.19017 102:0.25579 103:0.098781 104:0.099461 105:1.2228 106:1.2228 107:1.2617 108:1.3128 109:0.34147 110:0.34147 111:0.13829 112:0.13829 113:0.35434 114:0.33884 115:0.27589 116:0.28303 117:0.053755 118:0.036829 119:0.07537 120:0.032055 
0 0 0 0 0 0 351.2236919910246 0 0 0 0 0 0 0 1:0.0026861 2:0.0060615 3:0.0026619 4:0.009177 5:0.28072 6:0.33542 7:0.24741 8:0.24741 9:0.20152 10:0.20152 11:0.21284 12:0.22986 13:0.15451 14:0.15135 15:0.11674 16:0.12052 17:9.0015 18:9.0015 19:8.9764 20:8.9585 21:1.1249 22:1.2075 23:1.1382 24:1.1382 25:0.95827 26:0.95585 27:0.95213 28:0.95432 29:0.01523 30:0.0098874 31:0.010897 32:0.011526 33:0.25796 34:0.26573 35:0.26517 36:0.24192 37:0.12961 38:0.16383 39:0.11972 40:0.11972 41:0.29487 42:0.30624 43:0.29248 44:0.29248 45:1.1857 46:1.1838 47:1.2102 48:1.1515 49:1.2421 50:1.2421 51:1.3996 52:1.5017 53:0.34142 54:0.32661 55:0.39004 56:0.37264 57:0.075967 58:0.071729 59:0.070028 60:0.070527 61:8.8444 62:8.8444 63:8.9059 64:8.9059 65:0.15111 66:0.15111 67:0.19318 68:0.17983 69:0.445 70:0.47764 71:0.32614 72:0.33802 73:0.1834 74:0.13703 75:0.15258 76:0.13438 77:9.0555 78:9.0923 79:8.8846 80:8.8846 81:8.8782 82:8.8782 83:9.3585 84:9.3388 85:1.0436 86:1.0477 87:1.0709 88:1.0709 89:0.15556 90:0.17672 91:0.12359 92:0.11592 93:0.13325 94:0.11247 95:0.1601 96:0.16506 97:0.71083 98:0.77396 99:0.57813 100:0.61571 101:0.21312 102:0.28475 103:0.12071 104:0.10912 105:1.0647 106:1.0618 107:1.1019 108:1.1538 109:0.33724 110:0.33724 111:0.14431 112:0.14431 113:0.39046 114:0.37691 115:0.30954 116:0.31877 117:0.067351 118:0.045775 119:0.092774 120:0.040603 
0 0 0 0 0 0 0 0 0 0 0 0 0 90.62796020924939 1:0.0010203 2:0.0037955 3:0.0059999 4:0.0023808 5:0.187 6:0.23587 7:0.18551 8:0.19459 9:0.18801 10:0.18801 11:0.19624 12:0.2111 13:0.14059 14:0.13414 15:0.1119 16:0.11641 17:8.577 18:8.577 19:8.5546 20:8.5282 21:1.1659 22:1.2512 23:1.1833 24:1.1833 25:0.9924 26:0.98679 27:0.98689 28:0.98689 29:0.015756 30:0.013556 31:0.0073095 32:0.012097 33:0.24605 34:0.26141 35:0.25798 36:0.23297 37:0.10735 38:0.10735 39:0.11773 40:0.11773 41:0.28639 42:0.30397 43:0.28436 44:0.28436 45:1.201 46:1.1979 47:1.2266 48:1.1691 49:1.2414 50:1.2414 51:1.4036 52:1.5013 53:0.3637 54:0.3537 55:0.40976 56:0.38653 57:0.068714 58:0.064496 59:0.066032 60:0.075975 61:8.437 62:8.437 63:8.4642 64:8.4642 65:0.1196 66:0.1196 67:0.12328 68:0.1187 69:0.44558 70:0.47529 71:0.32672 72:0.33943 73:0.17835 74:0.13177 75:0.12954 76:0.12504 77:8.643 78:8.6731 79:8.4548 80:8.4548 81:8.3886 82:8.3886 83:8.9249 84:8.8963 85:1.0465 86:1.0586 87:1.0773 88:1.0633 89:0.14307 90:0.16187 91:0.113 92:0.10977 93:0.11913 94:0.09608 95:0.13866 96:0.14482 97:0.68458 98:0.75052 99:0.55028 100:0.59585 101:0.20369 102:0.27671 103:0.10816 104:0.10108 105:1.0902 106:1.1091 107:1.12 108:1.1678 109:0.2599 110:0.2599 111:0.13257 112:0.13257 113:0.3785 114:0.36192 115:0.29699 116:0.30883 117:0.033824 118:0.02735 119:0.027676 120:0.023447 
0 0 0 0 0 0 1000 0 0 0 0 0 0 0 1:0.0065625 2:0.006627 3:0 4:0.0074956 5:0.17723 6:0.23063 7:0.16398 8:0.1605 9:0.21253 10:0.21253 11:0.21995 12:0.23458 13:0.1575 14:0.148 15:0.13139 16:0.13584 17:8.2593 18:8.2593 19:8.2374 20:8.2001 21:1.3709 22:1.4617 23:1.3912 24:1.3912 25:1.163 26:1.1537 27:1.1433 28:1.1508 29:0.027058 30:0.024594 31:0.011968 32:0.024359 33:0.23783 34:0.25438 35:0.25581 36:0.229 37:0.11886 38:0.11886 39:0.13942 40:0.13942 41:0.28836 42:0.28836 43:0.27902 44:0.27902 45:1.3756 46:1.3709 47:1.4024 48:1.3444 49:1.4125 50:1.4125 51:1.5862 52:1.6775 53:0.41741 54:0.40819 55:0.45418 56:0.43251 57:0.085759 58:0.07888 59:0.066511 60:0.09464 61:8.1171 62:8.1171 63:8.1244 64:8.1244 65:0.12436 66:0.13543 67:0.12166 68:0.12121 69:0.48467 70:0.51219 71:0.36047 72:0.36877 73:0.19452 74:0.14926 75:0.13519 76:0.13966 77:8.3235 78:8.3541 79:8.117 80:8.117 81:7.9691 82:7.9691 83:8.6123 84:8.5799 85:1.1819 86:1.1833 87:1.2245 88:1.2079 89:0.15224 90:0.16476 91:0.11073 92:0.11073 93:0.12172 94:0.096076 95:0.14203 96:0.14952 97:0.6662 98:0.69222 99:0.52857 100:0.58292 101:0.22102 102:0.29627 103:0.11882 104:0.10076 105:1.2571 106:1.2754 107:1.293 108:1.3345 109:0.26986 110:0.26986 111:0.12585 112:0.12585 113:0.41013 114:0.39202 115:0.32423 116:0.33794 117:0.041499 118:0.030887 119:0.03453 120:0.034364 
0 0 0 0 0 0 0 0 0 0 0 0 0 858.0196154304691 1:0.005495 2:0.0046903 3:0.002583 4:0.0061903 5:0.16129 6:0.21213 7:0.14916 8:0.14838 9:0.21451 10:0.22007 11:0.22016 12:0.22306 13:0.14425 14:0.13411 15:0.12146 16:0.12499 17:9.2161 18:9.2161 19:9.1976 20:9.1584 21:1.4294 22:1.5178 23:1.456 24:1.456 25:1.2181 26:1.2073 27:1.2059 28:1.2059 29:0.01226 30:0.01226 31:0.012151 32:0.01297 33:0.24067 34:0.25724 35:0.25346 36:0.23145 37:0.07937 38:0.07937 39:0.12142 40:0.12142 41:0.27653 42:0.28566 43:0.26546 44:0.26546 45:1.4585 46:1.4519 47:1.4855 48:1.4231 49:1.478 50:1.478 51:1.6574 52:1.7575 53:0.38768 54:0.38093 55:0.42118 56:0.40124 57:0.076576 58:0.076365 59:0.066379 60:0.083691 61:9.0973 62:9.0697 63:9.0835 64:9.0835 65:0.10402 66:0.10402 67:0.098307 68:0.090183 69:0.45738 70:0.48309 71:0.34322 72:0.35424 73:0.18519 74:0.13811 75:0.14158 76:0.13433 77:9.2861 78:9.3094 79:9.083 80:9.083 81:8.955 82:8.955 83:9.5404 84:9.5043 85:1.2628 86:1.2785 87:1.3135 88:1.2637 89:0.14589 90:0.13315 91:0.10699 92:0.10515 93:0.12848 94:0.096618 95:0.14336 96:0.13868 97:0.62254 98:0.66749 99:0.5 100:0.55239 101:0.20675 102:0.28317 103:0.11686 104:0.094231 105:1.3393 106:1.338 107:1.3734 108:1.4139 109:0.2233 110:0.2233 111:0.13807 112:0.13807 113:0.40596 114:0.38942 115:0.32231 116:0.33905 117:0.0085148 118:0.007334 119:0.0084668 120:0.0032057 
0 0 0 0 0 0 0 0 0 0 0 0 0 14.48926021945236 1:0.0070229 2:0.0059254 3:0.0052219 4:0.012047 5:0.19576 6:0.25817 7:0.17544 8:0.16641 9:0.2552 10:0.25627 11:0.26163 12:0.26859 13:0.18301 14:0.17516 15:0.14915 16:0.15181 17:9.4399 18:9.4399 19:9.4164 20:9.3859 21:1.4223 22:1.5132 23:1.44 24:1.44 25:1.1974 26:1.1931 27:1.174 28:1.1791 29:0.010992 30:0.010992 31:0.014285 32:0.014285 33:0.25955 34:0.26412 35:0.26958 36:0.24855 37:0.097273 38:0.10153 39:0.11563 40:0.11563 41:0.28644 42:0.28644 43:0.2843 44:0.2843 45:1.4681 46:1.4637 47:1.4954 48:1.4311 49:1.5113 50:1.5113 51:1.6921 52:1.7961 53:0.39037 54:0.38978 55:0.43816 56:0.42604 57:0.080909 58:0.08966 59:0.078866 60:0.08414 61:9.2853 62:9.2853 63:9.3125 64:9.3125 65:0.095531 66:0.10582 67:0.10372 68:0.098999 69:0.49752 70:0.52663 71:0.37427 72:0.38105 73:0.20965 74:0.16353 75:0.18012 76:0.16051 77:9.4982 78:9.533 79:9.3038 80:9.3038 81:9.1024 82:9.1024 83:9.7963 84:9.7688 85:1.2588 86:1.2587 87:1.3129 88:1.2575 89:0.1684 90:0.14363 91:0.12236 92:0.12024 93:0.15914 94:0.12829 95:0.18415 96:0.18702 97:0.56402 98:0.57989 99:0.43708 100:0.48278 101:0.23365 102:0.31608 103:0.11783 104:0.10659 105:1.3405 106:1.3291 107:1.3764 108:1.4213 109:0.25196 110:0.25196 111:0.14077 112:0.14077 113:0.43601 114:0.43601 115:0.3688 116:0.38116 117:0.0066813 118:0.0033166 119:0.0016255 120:0.012094 
0 0 0 0 0 0 0 0 0 0 0.9571684534392891 0 0 1000 1:0.010361 2:0.010893 3:0.0039257 4:0.0058365 5:0.16621 6:0.215 7:0.15331 8:0.14675 9:0.23355 10:0.23355 11:0.23972 12:0.25287 13:0.16742 14:0.15527 15:0.1457 16:0.14738 17:8.4327 18:8.4327 19:8.414 20:8.3698 21:0.97138 22:1.0634 23:0.99896 24:0.99896 25:0.74936 26:0.73614 27:0.73274 28:0.73274 29:0.013705 30:0.013705 31:0.015379 32:0.015379 33:0.25688 34:0.27668 35:0.27258 36:0.24899 37:0.10116 38:0.10116 39:0.15524 40:0.15524 41:0.31514 42:0.31935 43:0.30017 44:0.30017 45:0.98155 46:0.97445 47:1.0093 48:0.94729 49:1.0003 50:1.0003 51:1.1846 52:1.2815 53:0.44193 54:0.43727 55:0.47721 56:0.45863 57:0.10218 58:0.0962 59:0.085842 60:0.10547 61:8.3114 62:8.2754 63:8.2886 64:8.2886 65:0.12399 66:0.12787 67:0.11959 68:0.11012 69:0.50811 70:0.52906 71:0.38726 72:0.38684 73:0.21354 74:0.16752 75:0.14188 76:0.15939 77:8.5044 78:8.5283 79:8.2894 80:8.2894 81:8.1319 82:8.1319 83:8.7664 84:8.7276 85:0.77249 86:0.7847 87:0.82522 88:0.7742 89:0.17185 90:0.15843 91:0.13066 92:0.13092 93:0.14438 94:0.11296 95:0.15753 96:0.15707 97:0.67886 98:0.70969 99:0.54441 100:0.60239 101:0.24228 102:0.32096 103:0.14082 104:0.12533 105:0.85901 106:0.85508 107:0.89631 108:0.93192 109:0.24824 110:0.24824 111:0.14812 112:0.14812 113:0.42752 114:0.40856 115:0.33958 116:0.35906 117:0.015606 118:0.010828 119:0.013446 120:0.0062359 
0 0 0 0 0 0 33.38091103687901 0 0 0 0 0 0 0 1:0.0067945 2:0.0067535 3:0.0028386 4:0.0092767 5:0.16295 6:0.21656 7:0.14758 8:0.14421 9:0.22225 10:0.2283 11:0.22801 12:0.22981 13:0.14998 14:0.13988 15:0.12601 16:0.1292 17:9.3058 18:9.3058 19:9.2866 20:9.2474 21:1.5424 22:1.6316 23:1.568 24:1.568 25:1.3237 26:1.3141 27:1.3111 28:1.3127 29:0.010894 30:0.010894 31:0.013052 32:0.013052 33:0.23991 34:0.25455 35:0.25305 36:0.23105 37:0.08089 38:0.08089 39:0.11803 40:0.11803 41:0.27508 42:0.27823 43:0.26237 44:0.26237 45:1.5708 46:1.5642 47:1.5979 48:1.5351 49:1.593 50:1.593 51:1.7739 52:1.8738 53:0.39297 54:0.38464 55:0.42662 56:0.40533 57:0.076732 58:0.0751 59:0.065613 60:0.080048 61:9.1819 62:9.1572 63:9.1713 64:9.1713 65:0.10352 66:0.10486 67:0.095016 68:0.088163 69:0.46326 70:0.49106 71:0.34781 72:0.35711 73:0.18912 74:0.14111 75:0.14864 76:0.13751 77:9.3735 78:9.3985 79:9.17 80:9.17 81:9.0197 82:9.0197 83:9.6342 84:9.5989 85:1.3677 86:1.3798 87:1.4208 88:1.3689 89:0.14733 90:0.13082 91:0.10685 92:0.10497 93:0.13144 94:0.099164 95:0.14812 96:0.14518 97:0.60196 98:0.63751 99:0.48 100:0.53228 101:0.20888 102:0.28624 103:0.11822 104:0.091668 105:1.4494 106:1.4459 107:1.4845 108:1.525 109:0.22496 110:0.22496 111:0.13785 112:0.13785 113:0.40947 114:0.40003 115:0.33201 116:0.34815 117:0.0060622 118:0.0066377 119:0.0070092 120:0.0058983 
0 0 0 0 0 0 0 0 0 0 0 0 0 1000 1:0.0046869 2:0.0051004 3:0.001563 4:0.0043712 5:0.16206 6:0.21261 7:0.15076 8:0.14933 9:0.21742 10:0.21912 11:0.22231 12:0.22998 13:0.15049 14:0.14035 15:0.12679 16:0.13082 17:8.8927 18:8.8927 19:8.8733 20:8.8349 21:1.2714 22:1.3606 23:1.2964 24:1.2964 25:1.0629 26:1.0511 27:1.0497 28:1.0497 29:0.010424 30:0.010424 31:0.011797 32:0.013238 33:0.24484 34:0.26165 35:0.25842 36:0.23545 37:0.08551 38:0.08551 39:0.12864 40:0.12864 41:0.288 42:0.29561 43:0.27691 44:0.27691 45:1.2957 46:1.2896 47:1.3228 48:1.2612 49:1.3192 50:1.3192 51:1.4976 52:1.5964 53:0.39993 54:0.39283 55:0.43612 56:0.41568 57:0.082015 58:0.07942 59:0.070564 60:0.089057 61:8.7682 62:8.7448 63:8.7594 64:8.7594 65:0.10878 66:0.10878 67:0.10265 68:0.095715 69:0.47078 70:0.49632 71:0.35336 72:0.36478 73:0.19217 74:0.14509 75:0.13977 76:0.13946 77:8.9624 78:8.9874 79:8.7579 80:8.7579 81:8.6221 82:8.6221 83:9.2252 84:9.1896 85:1.1009 86:1.1143 87:1.1495 88:1.101 89:0.15177 90:0.13957 91:0.11429 92:0.11262 93:0.13106 94:0.10065 95:0.14657 96:0.14486 97:0.63971 98:0.68181 99:0.51169 100:0.56455 101:0.21571 102:0.29271 103:0.12184 104:0.10239 105:1.1761 106:1.173 107:1.2109 108:1.2495 109:0.23193 110:0.23193 111:0.13855 112:0.13855 113:0.40925 114:0.3918 115:0.3243 116:0.34088 117:0.01091 118:0.0060428 119:0.0080153 120:0.0026167 
0 0 0 0 0 0 0 0 0 0 0 0 0 1000 1:0.0035834 2:0.0058203 3:0.0032921 4:0.0031208 5:0.17249 6:0.22246 7:0.16365 8:0.16386 9:0.21876 10:0.21898 11:0.22398 12:0.23383 13:0.15367 14:0.14429 15:0.12819 16:0.13237 17:8.9075 18:8.9075 19:8.8876 20:8.8522 21:1.1049 22:1.1933 23:1.1286 24:1.1286 25:0.90321 26:0.89206 27:0.89179 28:0.89179 29:0.013403 30:0.013403 31:0.012205 32:0.014296 33:0.25278 34:0.26849 35:0.26445 36:0.24212 37:0.089988 38:0.089988 39:0.13127 40:0.13127 41:0.29718 42:0.30724 43:0.28705 44:0.28705 45:1.1381 46:1.1325 47:1.165 48:1.1031 49:1.1642 50:1.1642 51:1.3407 52:1.4418 53:0.39494 54:0.38704 55:0.43632 56:0.41451 57:0.082518 58:0.081025 59:0.076125 60:0.09247 61:8.7804 62:8.7639 63:8.7794 64:8.7794 65:0.11234 66:0.11234 67:0.11011 68:0.10315 69:0.47243 70:0.49895 71:0.35482 72:0.36767 73:0.1963 74:0.14802 75:0.14263 76:0.14288 77:8.9769 78:9.0027 79:8.7767 80:8.7767 81:8.6555 82:8.6555 83:9.2423 84:9.2081 85:0.95073 86:0.96545 87:0.99709 88:0.94981 89:0.15673 90:0.14659 91:0.11987 92:0.11721 93:0.13728 94:0.10752 95:0.15312 96:0.15022 97:0.65061 98:0.69936 99:0.52145 100:0.57192 101:0.22027 102:0.29772 103:0.12691 104:0.11012 105:1.0193 106:1.0169 107:1.0528 108:1.0936 109:0.23788 110:0.23788 111:0.1448 112:0.1448 113:0.40979 114:0.39217 115:0.32451 116:0.34092 117:0.014332 118:0.0065928 119:0.0086166 120:0.0019751 
0 0 0 0 0 0 0 0 0 0 0 0 0 1000 1:0.0044313 2:0.0020458 3:0.0020883 4:0.002724 5:0.1488 6:0.19535 7:0.14314 8:0.14819 9:0.19436 10:0.19631 11:0.19887 12:0.2068 13:0.13416 14:0.12448 15:0.1128 16:0.11668 17:8.705 18:8.705 19:8.6861 20:8.6489 21:1.3229 22:1.4102 23:1.3476 24:1.3476 25:1.1337 26:1.119 27:1.1174 28:1.1174 29:0.011153 30:0.011153 31:0.0075797 32:0.01263 33:0.23741 34:0.25766 35:0.25198 36:0.22759 37:0.077148 38:0.077148 39:0.12553 40:0.12553 41:0.2765 42:0.29444 43:0.27052 44:0.27052 45:1.3428 46:1.3372 47:1.3694 48:1.3102 49:1.3646 50:1.3646 51:1.5367 52:1.6331 53:0.38236 54:0.37737 55:0.41494 56:0.39721 57:0.073804 58:0.067521 59:0.063807 60:0.084153 61:8.586 62:8.5613 63:8.5759 64:8.5759 65:0.098232 66:0.098232 67:0.097591 68:0.091204 69:0.44805 70:0.47128 71:0.33279 72:0.34272 73:0.17548 74:0.13137 75:0.12396 76:0.12469 77:8.7776 78:8.8008 79:8.575 80:8.575 81:8.4752 82:8.4752 83:9.0335 84:8.9972 85:1.1653 86:1.183 87:1.2066 88:1.164 89:0.13928 90:0.13377 91:0.10605 92:0.10525 93:0.11549 94:0.087372 95:0.12922 96:0.12759 97:0.66273 98:0.72144 99:0.5342 100:0.58702 101:0.20057 102:0.27436 103:0.10554 104:0.094872 105:1.2286 106:1.2278 107:1.2618 108:1.2977 109:0.22344 110:0.22344 111:0.13025 112:0.13025 113:0.38138 114:0.36504 115:0.30037 116:0.31602 117:0.015898 118:0.0079703 119:0.0084367 120:0.00064006 
0 0 0 0 0 0 0 0 0 0 0 0 0 1000 1:0.0061899 2:0.0038976 3:0.0014086 4:0.0024159 5:0.14897 6:0.19518 7:0.14133 8:0.14254 9:0.20511 10:0.20511 11:0.20913 12:0.21975 13:0.14329 14:0.13234 15:0.12299 16:0.12487 17:8.4603 18:8.4603 19:8.4418 20:8.4008 21:1.1834 22:1.2726 23:1.2097 24:1.2097 25:0.98312 26:0.96825 27:0.96548 28:0.96548 29:0.010602 30:0.010602 31:0.0091903 32:0.012971 33:0.24177 34:0.26341 35:0.25779 36:0.23303 37:0.084373 38:0.084373 39:0.1385 40:0.1385 41:0.28946 42:0.30376 43:0.28064 44:0.28064 45:1.1943 46:1.188 47:1.2213 48:1.1617 49:1.2135 50:1.2135 51:1.3898 52:1.4849 53:0.40686 54:0.40304 55:0.43849 56:0.42166 57:0.081857 58:0.076136 59:0.070276 60:0.092165 61:8.3425 62:8.3102 63:8.3239 64:8.3239 65:0.10812 66:0.10812 67:0.10433 68:0.096644 69:0.46941 70:0.4903 71:0.35191 72:0.35454 73:0.18681 74:0.14315 75:0.12481 76:0.13507 77:8.5332 78:8.5564 79:8.3244 80:8.3244 81:8.2053 82:8.2053 83:8.7901 84:8.7519 85:1.0057 86:1.0218 87:1.0504 88:1.0056 89:0.14919 90:0.14184 91:0.11252 92:0.11505 93:0.12174 94:0.092785 95:0.13443 96:0.1339 97:0.67786 98:0.72709 99:0.54589 100:0.60193 101:0.21447 102:0.28947 103:0.11524 104:0.10524 105:1.0776 106:1.0759 107:1.1127 108:1.1468 109:0.23088 110:0.23088 111:0.13352 112:0.13352 113:0.39292 114:0.37565 115:0.30988 116:0.32718 117:0.016463 118:0.0086175 119:0.010666 120:0.0014505 
0 0 0 0 0 0 0 0 0 0 0 0 0 64.48312470930277 1:0.0050511 2:0.001926 3:0.0023131 4:0.001733 5:0.14062 6:0.18487 7:0.1385 8:0.14634 9:0.18316 10:0.18316 11:0.18813 12:0.20062 13:0.13167 14:0.12216 15:0.11099 16:0.11433 17:8.2608 18:8.2608 19:8.2414 20:8.2052 21:1.2428 22:1.3301 23:1.2659 24:1.2659 25:1.0567 26:1.0491 27:1.0472 28:1.0472 29:0.010149 30:0.010149 31:0.0060771 32:0.011282 33:0.23657 34:0.25915 35:0.25302 36:0.22658 37:0.078771 38:0.078771 39:0.12421 40:0.12421 41:0.28026 42:0.30073 43:0.27713 44:0.27713 45:1.2532 46:1.2484 47:1.2796 48:1.2229 49:1.2781 50:1.2781 51:1.4457 52:1.5388 53:0.38666 54:0.38255 55:0.4188 56:0.40233 57:0.068541 58:0.064159 59:0.06384 60:0.081406 61:8.1391 62:8.1172 63:8.1325 64:8.1325 65:0.097026 66:0.097026 67:0.098107 68:0.09355 69:0.44913 70:0.47088 71:0.3317 72:0.33688 73:0.17306 74:0.1309 75:0.11374 76:0.12157 77:8.3348 78:8.3586 79:8.1311 80:8.1311 81:8.04 82:8.04 83:8.5957 84:8.5594 85:1.0853 86:1.1025 87:1.1206 88:1.0825 89:0.13784 90:0.13621 91:0.10573 92:0.10857 93:0.10867 94:0.083363 95:0.12216 96:0.12419 97:0.69119 98:0.7549 99:0.55691 100:0.61061 101:0.2008 102:0.2732 103:0.10097 104:0.09784 105:1.1416 106:1.1399 107:1.1749 108:1.2067 109:0.22733 110:0.22733 111:0.1254 112:0.1254 113:0.36933 114:0.35311 115:0.28974 116:0.30454 117:0.012718 118:0.0088617 119:0.0061034 120:0.00053625 
0 0 0 0 0 0 0 0 0 0 0 0 0 1000 1:0.0070423 2:0.0023585 3:0.0025444 4:0.0014999 5:0.13701 6:0.17937 7:0.13465 8:0.14139 9:0.18498 10:0.18498 11:0.18935 12:0.20177 13:0.13137 14:0.12071 15:0.11319 16:0.11319 17:8.1618 18:8.1618 19:8.1436 20:8.1035 21:1.1861 22:1.2739 23:1.2119 24:1.2119 25:0.9927 26:0.98567 27:0.98263 28:0.98263 29:0.011575 30:0.011575 31:0.0063131 32:0.011201 33:0.2369 34:0.26205 35:0.25436 36:0.22788 37:0.079726 38:0.079726 39:0.13137 40:0.13137 41:0.28357 42:0.30448 43:0.27932 44:0.27932 45:1.1899 46:1.1842 47:1.2165 48:1.1595 49:1.2085 50:1.2085 51:1.379 52:1.4711 53:0.39738 54:0.39559 55:0.42598 56:0.41173 57:0.071422 58:0.067395 59:0.066378 60:0.083564 61:8.0477 62:8.0145 63:8.0283 64:8.0283 65:0.1012 66:0.1012 67:0.10195 68:0.095089 69:0.45469 70:0.4731 71:0.33804 72:0.33612 73:0.17486 74:0.13413 75:0.11025 76:0.12433 77:8.2362 78:8.2595 79:8.0292 80:8.0292 81:7.9392 82:7.9392 83:8.4904 84:8.4515 85:1.0167 86:1.0338 87:1.0542 88:1.0152 89:0.14069 90:0.13956 91:0.10581 92:0.11193 93:0.10892 94:0.082495 95:0.12004 96:0.12072 97:0.70648 98:0.76933 99:0.57211 100:0.62867 101:0.20476 102:0.27696 103:0.10282 104:0.102 105:1.078 106:1.0778 107:1.112 108:1.1427 109:0.22682 110:0.22682 111:0.1267 112:0.1267 113:0.36939 114:0.35294 115:0.28966 116:0.30615 117:0.013358 118:0.011173 119:0.0065951 120:0.00064678 
0 0 0 0 0 0 998.7892723321366 0 0 0 0 0 0 0 1:0.01204 2:0.0033378 3:0.0036235 4:0.012429 5:0.17562 6:0.23491 7:0.15426 8:0.14265 9:0.25287 10:0.25287 11:0.25855 12:0.26831 13:0.18302 14:0.17279 15:0.15441 16:0.15791 17:8.8424 18:8.8424 19:8.8203 20:8.7818 21:1.4063 22:1.4996 23:1.4272 24:1.4272 25:1.1738 26:1.1654 27:1.1469 28:1.1525 29:0.0086079 30:0.0086079 31:0.0094253 32:0.0094253 33:0.25378 34:0.26446 35:0.26907 36:0.24545 37:0.10356 38:0.10356 39:0.13263 40:0.13263 41:0.29026 42:0.29026 43:0.28709 44:0.28709 45:1.4242 46:1.4187 47:1.452 48:1.3895 49:1.4601 50:1.4601 51:1.644 52:1.7413 53:0.43281 54:0.42649 55:0.47568 56:0.45391 57:0.095105 58:0.090866 59:0.079462 60:0.089308 61:8.6957 62:8.6852 63:8.7015 64:8.7015 65:0.096683 66:0.11046 67:0.10402 68:0.10178 69:0.514 70:0.54577 71:0.38866 72:0.39528 73:0.22095 74:0.17006 75:0.1668 76:0.16317 77:8.9048 78:8.9366 79:8.6964 80:8.6964 81:8.477 82:8.477 83:9.1966 84:9.1642 85:1.204 86:1.203 87:1.2594 88:1.2043 89:0.17061 90:0.14624 91:0.11549 92:0.11549 93:0.15134 94:0.12062 95:0.17312 96:0.17961 97:0.59811 98:0.60501 99:0.46575 100:0.51902 101:0.24084 102:0.32215 103:0.12818 104:0.11088 105:1.2963 106:1.2841 107:1.3352 108:1.3725 109:0.25309 110:0.25309 111:0.14186 112:0.14186 113:0.45313 114:0.43717 115:0.36576 116:0.38083 117:0.0091602 118:0.0064791 119:0.0066542 120:0.011389 
0 0 0 0 0 0 1000 0 0 0 0 0 0 0 1:0.011461 2:0.0083786 3:0.0068072 4:0.0070496 5:0.18316 6:0.24815 7:0.1662 8:0.16044 9:0.23633 10:0.23633 11:0.25046 12:0.27095 13:0.19586 14:0.18955 15:0.15702 16:0.16069 17:8.3017 18:8.3017 19:8.2729 20:8.2512 21:1.4716 22:1.5641 23:1.4771 24:1.4771 25:1.2526 26:1.2526 27:1.2353 28:1.244 29:0.0040818 30:0.0040818 31:0.0066692 32:0.0066692 33:0.25916 34:0.26238 35:0.27472 36:0.24708 37:0.11051 38:0.11443 39:0.1185 40:0.1185 41:0.29061 42:0.29061 43:0.30156 44:0.30156 45:1.494 46:1.4938 47:1.5208 48:1.4636 49:1.5644 50:1.5644 51:1.7311 52:1.8249 53:0.40613 54:0.40426 55:0.45733 56:0.4478 57:0.085367 58:0.09163 59:0.077914 60:0.085512 61:8.1119 62:8.1119 63:8.1793 64:8.1768 65:0.081644 66:0.10201 67:0.096053 68:0.091512 69:0.51659 70:0.54798 71:0.38073 72:0.38398 73:0.21994 74:0.17089 75:0.16036 76:0.16005 77:8.3549 78:8.4001 79:8.1629 80:8.1629 81:7.9265 82:7.9265 83:8.7006 84:8.6796 85:1.3037 86:1.2886 87:1.3409 88:1.2961 89:0.16885 90:0.14601 91:0.1229 92:0.1229 93:0.14922 94:0.12824 95:0.1818 96:0.18717 97:0.58758 98:0.59491 99:0.44205 100:0.48617 101:0.24082 102:0.32198 103:0.11865 104:0.10963 105:1.3688 106:1.346 107:1.4068 108:1.4402 109:0.27546 110:0.27546 111:0.13347 112:0.13347 113:0.44902 114:0.43518 115:0.36444 116:0.37097 117:0.023071 118:0.0028532 119:0.0052763 120:0.021452 
0 0 0 0 0 0 1000 0 0 0 0 0 0 0 1:0.011402 2:0.0045067 3:0.0075083 4:0.0022677 5:0.23942 6:0.30686 7:0.21898 8:0.21187 9:0.24437 10:0.24437 11:0.25435 12:0.26784 13:0.18558 14:0.1817 15:0.14835 16:0.15097 17:9.0066 18:9.0066 19:8.9789 20:8.9563 21:1.6754 22:1.7655 23:1.6845 24:1.6845 25:1.4584 26:1.4584 27:1.4358 28:1.4415 29:0.036327 30:0.02112 31:0.019626 32:0.025022 33:0.25317 34:0.25415 35:0.26587 36:0.24085 37:0.14421 38:0.15535 39:0.1343 40:0.1343 41:0.27282 42:0.27282 43:0.28253 44:0.28253 45:1.7133 46:1.7116 47:1.7394 48:1.6798 49:1.78 50:1.78 51:1.9489 52:2.0461 53:0.3743 54:0.37752 55:0.42509 56:0.42038 57:0.09188 58:0.086718 59:0.072674 60:0.079862 61:8.8245 62:8.8245 63:8.8899 64:8.8899 65:0.12506 66:0.13799 67:0.13959 68:0.13305 69:0.49474 70:0.52304 71:0.36544 72:0.36801 73:0.20475 74:0.16072 75:0.16406 76:0.15519 77:9.0545 78:9.0984 79:8.8696 80:8.8696 81:8.6895 82:8.6895 83:9.3897 84:9.3704 85:1.5216 86:1.5068 87:1.5632 88:1.5632 89:0.16487 90:0.18578 91:0.1171 92:0.1171 93:0.14779 94:0.12449 95:0.18158 96:0.18646 97:0.59175 98:0.59856 99:0.45669 100:0.49865 101:0.23102 102:0.3096 103:0.12782 104:0.099434 105:1.5905 106:1.6143 107:1.6243 108:1.6671 109:0.31219 110:0.31219 111:0.13955 112:0.13955 113:0.42753 114:0.42753 115:0.36417 116:0.37129 117:0.063587 118:0.051073 119:0.05091 120:0.070072 
2.006375181467114 3.044989315926251 4.020594793662658 0.08685867539319245 2.589017534902501 0 1000 13.84629809232754 2.131091684084155 2.71024287513176 0 1.213795460420501 2.34081688438197 0 1:0.031029 2:0.036884 3:0 4:0.019442 5:0.075296 6:0.098545 7:0.069149 8:0.069301 9:0.19623 10:0.20089 11:0.19314 12:0.19879 13:0.13081 14:0.10808 15:0.11033 16:0.11251 17:6.7598 18:6.7598 19:6.7004 20:6.6708 21:1.5401 22:1.6343 23:1.5919 24:1.5919 25:1.253 26:1.2767 27:1.2275 28:1.2601 29:0.034932 30:0.037828 31:0.03823 32:0.034091 33:0.23119 34:0.25078 35:0.26843 36:0.23522 37:0.096027 38:0.096027 39:0.1965 40:0.18848 41:0.27843 42:0.32124 43:0.2855 44:0.2855 45:1.4368 46:1.4226 47:1.4652 48:1.4124 49:1.3929 50:1.3929 51:1.5836 52:1.6525 53:0.50499 54:0.50499 55:0.49881 56:0.51304 57:0.10592 58:0.094635 59:0.091052 60:0.090924 61:6.5893 62:6.5679 63:6.566 64:6.566 65:0.082567 66:0.068525 67:0.13077 68:0.10751 69:0.49096 70:0.48207 71:0.32861 72:0.31892 73:0.18649 74:0.16795 75:0.08007 76:0.14399 77:6.8212 78:6.8572 79:6.5918 80:6.5918 81:6.4923 82:6.4923 83:7.0279 84:6.9601 85:1.2144 86:1.2146 87:1.2561 88:1.2254 89:0.16268 90:0.16699 91:0.099201 92:0.11285 93:0.09623 94:0.062691 95:0.084366 96:0.0827 97:0.86693 98:0.91566 99:0.73193 100:0.82344 101:0.23574 102:0.29927 103:0.10927 104:0.10727 105:1.3281 106:1.3379 107:1.3715 108:1.3762 109:0.22611 110:0.22611 111:0.13247 112:0.13247 113:0.36269 114:0.34666 115:0.28923 116:0.31831 117:0.061494 118:0.06816 119:0.040118 120:0.040209 
0 0 0 0.01462183190710953 0 0 1000 0 0 0 0 0 0 0 1:0.011043 2:0.011452 3:0.0087482 4:0.0042203 5:0.082081 6:0.11306 7:0.081364 8:0.091079 9:0.16037 10:0.16435 11:0.16016 12:0.16642 13:0.10635 14:0.090451 15:0.089166 16:0.090582 17:7.413 18:7.413 19:7.3803 20:7.3413 21:1.6529 22:1.742 23:1.6905 24:1.6905 25:1.427 26:1.4373 27:1.4182 28:1.4266 29:0.014766 30:0.012471 31:0.013548 32:0.013552 33:0.21395 34:0.23593 35:0.24299 36:0.21135 37:0.069008 38:0.069008 39:0.14249 40:0.14249 41:0.25738 42:0.28634 43:0.25801 44:0.25801 45:1.5974 46:1.5882 47:1.6243 48:1.5722 49:1.5853 50:1.5853 51:1.7588 52:1.8359 53:0.42599 54:0.42599 55:0.42673 56:0.4289 57:0.070173 58:0.066199 59:0.059522 60:0.067952 61:7.2832 62:7.2475 63:7.2537 64:7.2537 65:0.074963 66:0.079182 67:0.095951 68:0.083268 69:0.44236 70:0.44285 71:0.3019 72:0.29507 73:0.15263 74:0.12587 75:0.07594 76:0.11065 77:7.4818 78:7.5111 79:7.267 80:7.267 81:7.1966 82:7.1966 83:7.709 84:7.6559 85:1.415 86:1.4228 87:1.4532 88:1.4183 89:0.12649 90:0.13248 91:0.080484 92:0.099607 93:0.076147 94:0.04858 95:0.075619 96:0.076837 97:0.77876 98:0.84688 99:0.64594 100:0.71947 101:0.191 102:0.25521 103:0.077938 104:0.080004 105:1.4921 106:1.4978 107:1.5297 108:1.5441 109:0.20685 110:0.20685 111:0.11013 112:0.11013 113:0.33231 114:0.3177 115:0.26042 116:0.28092 117:0.0292 118:0.035577 119:0.022353 120:0.01514 
0 0 0 0 0 0 706.7841938569742 0 0 0 0 0 0 0 1:0.0042799 2:0.0065061 3:0.010571 4:0.00095747 5:0.0979 6:0.12871 7:0.10191 8:0.1132 9:0.1576 10:0.15776 11:0.15804 12:0.16957 13:0.10836 14:0.094373 15:0.091918 16:0.090331 17:7.4109 18:7.4109 19:7.3875 20:7.3451 21:1.3143 22:1.4019 23:1.3481 24:1.3481 25:1.106 26:1.1155 27:1.1072 28:1.1075 29:0.010339 30:0.0081578 31:0.0079683 32:0.0073985 33:0.22388 34:0.24584 35:0.24897 36:0.21844 37:0.072571 38:0.072571 39:0.1373 40:0.1373 41:0.26717 42:0.29458 43:0.27298 44:0.27298 45:1.2777 46:1.27 47:1.3043 48:1.2517 49:1.2744 50:1.2744 51:1.4432 52:1.5248 53:0.41593 54:0.41915 55:0.42212 56:0.42049 57:0.064407 58:0.062721 59:0.063952 60:0.071177 61:7.2947 62:7.2547 63:7.2635 64:7.2635 65:0.087652 66:0.091129 67:0.1034 68:0.0919 69:0.44092 70:0.44476 71:0.30513 72:0.29847 73:0.15574 74:0.12595 75:0.07681 76:0.1115 77:7.4829 78:7.5103 79:7.2731 80:7.2731 81:7.2266 82:7.2266 83:7.7159 84:7.6669 85:1.1112 86:1.1216 87:1.144 88:1.1119 89:0.13031 90:0.13982 91:0.089278 92:0.10851 93:0.08283 94:0.057212 95:0.084177 96:0.08438 97:0.78959 98:0.86931 99:0.65339 100:0.72124 101:0.19442 102:0.25984 103:0.082347 104:0.089576 105:1.1737 106:1.1796 107:1.2087 108:1.2275 109:0.21442 110:0.21442 111:0.11561 112:0.11561 113:0.32891 114:0.31389 115:0.25604 116:0.27552 117:0.015986 118:0.025983 119:0.010718 120:0.0074556 
0 0 0 0 0 0 1000 0 0 0 0 0 0 0 1:0.0045272 2:0.0057416 3:0.0046295 4:0.0083231 5:0.24132 6:0.23485 7:0.13472 8:0.13472 9:0.11092 10:0.11366 11:0.11498 12:0.12967 13:0.076735 14:0.068033 15:0.066858 16:0.057093 17:7.5849 18:7.5849 19:7.5697 20:7.5299 21:1.2137 22:1.289 23:1.2489 24:1.2489 25:1.0574 26:1.067 27:1.0601 28:1.0648 29:0.0018241 30:0.0061461 31:0.0044334 32:0.0060164 33:0.2279 34:0.24074 35:0.23956 36:0.21725 37:0.1174 38:0.11861 39:0.10297 40:0.10297 41:0.22223 42:0.25553 43:0.26086 44:0.26086 45:1.2039 46:1.1967 47:1.2265 48:1.1782 49:1.205 50:1.205 51:1.3501 52:1.4316 53:0.33183 54:0.34438 55:0.34524 56:0.34528 57:0.044061 58:0.048487 59:0.049549 60:0.055421 61:7.505 62:7.505 63:7.4767 64:7.4767 65:0.11445 66:0.11445 67:0.27094 68:0.25942 69:0.36796 70:0.36854 71:0.24409 72:0.23887 73:0.11932 74:0.095223 75:0.062227 76:0.088566 77:7.6503 78:7.6744 79:7.4701 80:7.4701 81:7.7225 82:7.7225 83:7.8651 84:7.8243 85:1.1135 86:1.1335 87:1.1203 88:1.1203 89:0.12426 90:0.11337 91:0.10009 92:0.090709 93:0.061509 94:0.044473 95:0.063548 96:0.069655 97:0.99721 98:1.1351 99:0.86638 100:0.92519 101:0.1729 102:0.22169 103:0.058635 104:0.078543 105:1.1269 106:1.1726 107:1.1437 108:1.1887 109:0.28227 110:0.28924 111:0.12212 112:0.12212 113:0.26112 114:0.24761 115:0.1952 116:0.212 117:0.024462 118:0.015509 119:0.045811 120:0.013333 
